svm_type c_svc
kernel_type rbf
gamma 0.25
nr_class 2
total_sv 4078
rho -0.17962281978361694
label 0 1
nr_sv 2447 1631
SV
1.270358296509128 18:1 55:1 86:1 87:1 88:1 92:1 93:1 94:1 
4 18:1 22:1 39:1 55:1 56:1 57:1 74:1 75:1 92:1 
4 18:1 55:1 56:1 92:1 96:1 
4 18:1 19:1 55:1 59:1 92:1 93:1 102:1 108:1 
4 18:1 39:1 55:1 56:1 57:1 86:1 92:1 
0.15408054794569526 2:1 18:1 19:1 20:1 49:1 55:1 92:1 100:1 103:1 107:1 108:1 109:1 110:1 
0.87478357446043831 12:1 18:1 55:1 63:1 66:1 70:1 71:1 72:1 73:1 86:1 92:1 
0.54246367976431897 7:1 18:1 25:1 34:1 44:1 55:1 60:1 92:1 96:1 102:1 
1.8237393585295476 0:1 18:1 55:1 59:1 65:1 74:1 92:1 
0.37225475833342592 18:1 29:1 33:1 38:1 49:1 55:1 74:1 92:1 
0.99317509278062932 0:1 18:1 55:1 66:1 70:1 92:1 97:1 
4 4:1 18:1 39:1 55:1 56:1 57:1 77:1 92:1 96:1 
4 3:1 18:1 22:1 41:1 55:1 
0.45970253443134074 3:1 18:1 22:1 23:1 25:1 26:1 31:1 34:1 35:1 
0.74541563644979758 18:1 49:1 52:1 53:1 55:1 56:1 92:1 97:1 
0.57112296620070391 1:1 18:1 30:1 37:1 38:1 55:1 81:1 92:1 
0.054528022561926126 7:1 18:1 38:1 55:1 67:1 92:1 103:1 107:1 
0.054724667185115504 18:1 29:1 33:1 44:1 55:1 60:1 75:1 92:1 104:1 
0.31568574679518502 11:1 18:1 23:1 34:1 46:1 55:1 60:1 84:1 92:1 97:1 103:1 108:1 
0.25722221641973325 10:1 18:1 23:1 29:1 34:1 48:1 55:1 60:1 71:1 85:1 92:1 96:1 97:1 
0.27585957911595993 11:1 18:1 22:1 23:1 47:1 55:1 60:1 66:1 71:1 84:1 92:1 97:1 
1.1060019350379227 10:1 18:1 23:1 48:1 55:1 59:1 60:1 85:1 92:1 
0.68134084591571975 9:1 18:1 25:1 28:1 46:1 55:1 59:1 74:1 83:1 86:1 92:1 
0.0087427712384959347 0:1 9:1 12:1 18:1 46:1 55:1 62:1 65:1 74:1 83:1 92:1 
0.8066736885830128 0:1 9:1 18:1 37:1 46:1 49:1 55:1 75:1 83:1 86:1 92:1 
0.61130575764738548 10:1 18:1 23:1 29:1 46:1 55:1 84:1 92:1 
0.65271641754691634 9:1 18:1 22:1 44:1 55:1 60:1 83:1 92:1 102:1 
0.51994199716933365 0:1 9:1 18:1 46:1 55:1 65:1 74:1 83:1 92:1 
0.32021140535775805 9:1 18:1 29:1 55:1 60:1 83:1 92:1 99:1 102:1 
0.33731507282500334 10:1 18:1 47:1 55:1 60:1 66:1 84:1 92:1 105:1 
1.1390443408544513 10:1 18:1 31:1 47:1 55:1 85:1 92:1 
0.05193841092866941 11:1 18:1 47:1 55:1 68:1 76:1 92:1 93:1 94:1 
0.6356188392758475 9:1 18:1 46:1 55:1 75:1 83:1 92:1 104:1 
0.0051621876268767991 9:1 18:1 33:1 46:1 55:1 84:1 92:1 105:1 
0.011680207544101668 9:1 18:1 46:1 55:1 65:1 83:1 92:1 102:1 
0.16858252649850369 9:1 18:1 28:1 46:1 55:1 65:1 83:1 92:1 
0.12331061620855237 10:1 18:1 36:1 46:1 55:1 60:1 84:1 92:1 
1.4027635700043797 10:1 18:1 23:1 48:1 55:1 85:1 92:1 
0.27241166056621546 11:1 18:1 47:1 55:1 60:1 85:1 92:1 110:1 
0.66931248351460759 9:1 18:1 22:1 39:1 55:1 56:1 57:1 75:1 83:1 92:1 
0.99359589426589245 1:1 9:1 18:1 46:1 55:1 59:1 83:1 92:1 
0.68424053987549815 9:1 18:1 31:1 45:1 47:1 55:1 82:1 84:1 92:1 
0.21102548927892487 8:1 10:1 18:1 46:1 55:1 68:1 83:1 92:1 
0.64869794635944067 8:1 10:1 18:1 46:1 55:1 82:1 84:1 92:1 
0.6014553327798956 8:1 10:1 18:1 45:1 47:1 55:1 83:1 92:1 105:1 108:1 
0.30024951038057957 9:1 18:1 31:1 34:1 45:1 47:1 55:1 84:1 92:1 
0.19575028219665433 10:1 18:1 46:1 55:1 68:1 71:1 83:1 92:1 
0.29134404241427669 1:1 10:1 18:1 22:1 46:1 55:1 75:1 84:1 92:1 96:1 
0.51441963338405361 2:1 18:1 19:1 20:1 38:1 55:1 83:1 86:1 87:1 88:1 92:1 93:1 94:1 
0.2863077132126523 18:1 39:1 55:1 56:1 57:1 86:1 92:1 96:1 
0.076063899948071265 0:1 18:1 55:1 62:1 65:1 92:1 102:1 
1.6484930470407688 18:1 19:1 39:1 55:1 56:1 57:1 92:1 103:1 
3.3902184444058254 18:1 29:1 55:1 56:1 92:1 93:1 
0.12357332109697672 18:1 39:1 55:1 56:1 57:1 92:1 96:1 97:1 99:1 102:1 
0.64680443500438045 18:1 22:1 23:1 25:1 28:1 55:1 81:1 92:1 97:1 
3.6630533530851399 18:1 19:1 55:1 66:1 92:1 93:1 
1.559666182289936 18:1 23:1 55:1 92:1 93:1 
1.266269301467809 18:1 22:1 29:1 39:1 55:1 56:1 57:1 81:1 92:1 
0.029070946227598024 7:1 18:1 55:1 59:1 66:1 76:1 92:1 93:1 94:1 
3.2055868884330025 18:1 22:1 55:1 92:1 101:1 
4 18:1 27:1 55:1 59:1 92:1 93:1 
0.10033247697787434 18:1 33:1 55:1 92:1 93:1 
0.26840325773992857 18:1 19:1 55:1 70:1 92:1 93:1 
1.2997148456151233 18:1 23:1 55:1 66:1 81:1 92:1 93:1 97:1 105:1 
1.3912254923918348 7:1 18:1 19:1 23:1 31:1 55:1 60:1 92:1 93:1 97:1 
0.60802162525108083 18:1 22:1 39:1 55:1 56:1 57:1 81:1 92:1 93:1 
2.793734540637371 7:1 18:1 55:1 92:1 93:1 
4 18:1 19:1 55:1 56:1 92:1 93:1 103:1 
0.43183927315454351 18:1 22:1 39:1 55:1 56:1 57:1 81:1 92:1 93:1 97:1 106:1 
0.94243224887873767 18:1 22:1 39:1 55:1 56:1 57:1 81:1 92:1 106:1 
0.5098023660366916 18:1 19:1 39:1 55:1 56:1 57:1 92:1 
4 18:1 19:1 55:1 56:1 92:1 93:1 99:1 102:1 
1.204886899061981 18:1 19:1 25:1 28:1 55:1 56:1 74:1 92:1 93:1 
2.2478460008864545 0:1 18:1 19:1 55:1 56:1 62:1 65:1 75:1 92:1 104:1 
1.9023607494466523 1:1 18:1 30:1 37:1 55:1 56:1 76:1 92:1 93:1 94:1 
0.23294889978476402 18:1 31:1 55:1 59:1 62:1 65:1 92:1 102:1 106:1 
0.21322978189676123 18:1 27:1 55:1 92:1 96:1 99:1 
1.2424760142532238 18:1 33:1 55:1 78:1 92:1 
3.2632340321513515 4:1 18:1 55:1 70:1 77:1 92:1 
4 3:1 18:1 41:1 55:1 
0.44257752722816296 18:1 22:1 55:1 74:1 75:1 86:1 92:1 
0.27075459082701619 18:1 33:1 39:1 55:1 56:1 57:1 92:1 101:1 103:1 107:1 
0.52995284645527518 18:1 27:1 29:1 33:1 55:1 70:1 92:1 96:1 107:1 
0.24953623765970476 18:1 22:1 33:1 55:1 64:1 66:1 70:1 92:1 
0.16201765196304316 18:1 55:1 59:1 70:1 92:1 101:1 107:1 
1.3381965392153781 7:1 18:1 23:1 37:1 38:1 55:1 92:1 100:1 
0.42063918263659583 18:1 26:1 44:1 55:1 60:1 92:1 103:1 107:1 
0.31766298092201645 2:1 18:1 19:1 20:1 55:1 56:1 57:1 86:1 87:1 88:1 92:1 93:1 94:1 
4 3:1 18:1 41:1 55:1 59:1 
4 18:1 39:1 55:1 56:1 57:1 86:1 92:1 
4 18:1 22:1 39:1 55:1 56:1 57:1 81:1 92:1 
0.8089309319732636 0:1 11:1 18:1 55:1 66:1 72:1 84:1 92:1 96:1 105:1 
3.3036890492612656 18:1 22:1 55:1 59:1 92:1 93:1 
1.5411907582011144 18:1 19:1 55:1 59:1 92:1 
4 18:1 19:1 22:1 55:1 59:1 92:1 
3.8929707801715838 18:1 55:1 56:1 59:1 92:1 96:1 
3.9646930482171179 18:1 22:1 55:1 59:1 92:1 93:1 
4 18:1 19:1 55:1 59:1 92:1 
4 18:1 55:1 56:1 92:1 96:1 
4 18:1 39:1 55:1 56:1 57:1 86:1 92:1 
4 3:1 18:1 41:1 55:1 
0.37487311297050752 2:1 18:1 19:1 20:1 44:1 46:1 55:1 60:1 66:1 81:1 83:1 92:1 97:1 102:1 103:1 108:1 
0.20410655783257003 2:1 18:1 19:1 20:1 44:1 46:1 55:1 60:1 65:1 66:1 71:1 75:1 92:1 97:1 109:1 
4 12:1 18:1 55:1 75:1 92:1 96:1 
0.96884891717027644 1:1 18:1 22:1 49:1 55:1 92:1 97:1 103:1 
0.089715601732169595 1:1 18:1 30:1 31:1 38:1 55:1 92:1 103:1 107:1 
0.98969510425088358 18:1 29:1 33:1 38:1 55:1 67:1 68:1 92:1 
0.077876395237946289 10:1 18:1 29:1 39:1 48:1 55:1 56:1 57:1 84:1 92:1 103:1 
0.04260547380540531 10:1 18:1 29:1 47:1 55:1 66:1 76:1 85:1 92:1 93:1 94:1 
4 12:1 18:1 19:1 49:1 55:1 70:1 92:1 96:1 105:1 
4 18:1 22:1 31:1 49:1 55:1 56:1 92:1 
0.88800251055771018 12:1 18:1 31:1 55:1 60:1 75:1 86:1 92:1 
0.35692523622766414 1:1 12:1 18:1 49:1 55:1 68:1 92:1 
0.036796041409769956 18:1 26:1 29:1 55:1 63:1 70:1 90:1 92:1 97:1 100:1 103:1 108:1 
0.19847900670910165 16:1 18:1 23:1 26:1 29:1 34:1 55:1 63:1 66:1 92:1 97:1 100:1 
0.27610756343768256 18:1 23:1 28:1 29:1 55:1 60:1 63:1 92:1 102:1 103:1 
0.80868804015151741 18:1 23:1 29:1 55:1 60:1 92:1 100:1 102:1 
1.651502388391862 18:1 29:1 33:1 55:1 70:1 92:1 102:1 
0.22592265315181184 18:1 28:1 55:1 66:1 70:1 92:1 97:1 102:1 103:1 
0.50747899411008335 7:1 18:1 23:1 44:1 55:1 59:1 60:1 65:1 81:1 92:1 103:1 
0.59423686518146857 18:1 29:1 55:1 66:1 70:1 92:1 97:1 103:1 107:1 
0.19249826742183074 9:1 18:1 22:1 39:1 55:1 56:1 57:1 84:1 92:1 96:1 
1.744656277368956 10:1 18:1 22:1 47:1 55:1 59:1 78:1 84:1 92:1 96:1 
0.99111352689057008 4:1 10:1 18:1 22:1 47:1 55:1 59:1 77:1 84:1 92:1 96:1 
4 3:1 10:1 18:1 22:1 41:1 47:1 55:1 59:1 
2.403958900118456 18:1 22:1 39:1 55:1 56:1 57:1 81:1 83:1 92:1 97:1 105:1 
0.74351998993504897 7:1 9:1 18:1 23:1 31:1 55:1 59:1 76:1 92:1 93:1 94:1 
0.16917356770227493 12:1 18:1 55:1 70:1 92:1 
4 18:1 49:1 55:1 92:1 
2.4978408101870406 18:1 22:1 55:1 82:1 92:1 
0.27747379186140159 11:1 18:1 22:1 43:1 49:1 50:1 51:1 53:1 55:1 56:1 57:1 83:1 92:1 110:1 
2.4611218117547455 9:1 18:1 36:1 48:1 55:1 59:1 81:1 83:1 92:1 97:1 
0.48618649502779654 9:1 18:1 55:1 56:1 83:1 92:1 
1.9231798063358025 9:1 18:1 46:1 55:1 86:1 92:1 93:1 
1.661688577022236 18:1 22:1 23:1 29:1 55:1 59:1 64:1 78:1 86:1 92:1 
4 18:1 44:1 55:1 60:1 75:1 92:1 104:1 
0.72117062312272306 1:1 18:1 22:1 30:1 39:1 55:1 56:1 57:1 75:1 92:1 93:1 96:1 104:1 
0.041174196099566227 1:1 18:1 19:1 22:1 30:1 38:1 55:1 56:1 59:1 75:1 92:1 93:1 96:1 104:1 
0.36599976307266024 1:1 18:1 22:1 30:1 49:1 53:1 55:1 75:1 92:1 104:1 
1.3299892639329316 1:1 18:1 19:1 22:1 38:1 55:1 67:1 75:1 92:1 93:1 96:1 
0.38055364419040588 18:1 19:1 22:1 30:1 38:1 55:1 59:1 75:1 92:1 93:1 96:1 
0.0420965527530308 1:1 18:1 19:1 22:1 55:1 56:1 59:1 67:1 75:1 92:1 96:1 104:1 
0.81463100548465861 1:1 18:1 19:1 22:1 30:1 38:1 55:1 56:1 59:1 67:1 75:1 92:1 
1.5492590506389061 1:1 18:1 19:1 22:1 38:1 55:1 56:1 59:1 75:1 92:1 104:1 
2.1268872820965723 1:1 18:1 30:1 38:1 55:1 56:1 59:1 75:1 92:1 
0.12704873485264273 1:1 18:1 30:1 38:1 55:1 59:1 67:1 75:1 92:1 93:1 96:1 
0.56163947669035086 12:1 16:1 18:1 19:1 31:1 39:1 55:1 56:1 57:1 86:1 92:1 93:1 
0.42048887622198178 11:1 18:1 29:1 31:1 48:1 55:1 66:1 85:1 92:1 103:1 
0.10759088242244232 11:1 18:1 29:1 48:1 55:1 66:1 68:1 76:1 92:1 93:1 94:1 
4 3:1 18:1 41:1 55:1 59:1 
0.15199277332186353 7:1 15:1 16:1 18:1 23:1 52:1 53:1 55:1 59:1 70:1 75:1 82:1 89:1 90:1 92:1 
0.030133530947499754 1:1 8:1 15:1 16:1 18:1 44:1 52:1 53:1 55:1 60:1 75:1 89:1 90:1 92:1 93:1 
0.87742243750268312 18:1 29:1 55:1 71:1 92:1 96:1 
0.31553604377178857 3:1 12:1 13:1 14:1 16:1 18:1 19:1 20:1 
0.030616762941896053 12:1 13:1 14:1 15:1 16:1 18:1 19:1 20:1 49:1 50:1 51:1 52:1 53:1 55:1 56:1 57:1 78:1 86:1 87:1 88:1 89:1 90:1 92:1 93:1 94:1 
0.043806758383299151 2:1 18:1 19:1 20:1 49:1 50:1 55:1 56:1 57:1 92:1 105:1 108:1 
0.3323117963291749 18:1 31:1 34:1 55:1 68:1 71:1 92:1 105:1 108:1 
1.6010990404092145 18:1 31:1 34:1 55:1 68:1 71:1 86:1 92:1 
3.1962617773374205 12:1 18:1 55:1 68:1 71:1 86:1 87:1 92:1 93:1 94:1 
0.68725088278992286 12:1 13:1 18:1 19:1 20:1 49:1 55:1 76:1 92:1 93:1 94:1 
0.11625230139904262 18:1 23:1 25:1 28:1 37:1 38:1 55:1 75:1 92:1 
2.1729936078775025 6:1 12:1 13:1 14:1 18:1 19:1 20:1 55:1 75:1 84:1 92:1 96:1 104:1 
0.12590634537202142 12:1 15:1 16:1 18:1 19:1 49:1 52:1 53:1 55:1 75:1 89:1 90:1 92:1 93:1 104:1 
0.18579324527624402 1:1 15:1 16:1 18:1 19:1 30:1 49:1 52:1 53:1 55:1 56:1 81:1 89:1 90:1 92:1 97:1 100:1 
0.58403925368027421 12:1 18:1 19:1 20:1 52:1 53:1 55:1 64:1 92:1 101:1 
2.3891422461266685 18:1 27:1 49:1 55:1 56:1 57:1 86:1 92:1 
0.35785161953231864 1:1 18:1 55:1 59:1 74:1 81:1 92:1 97:1 
4 18:1 39:1 55:1 56:1 57:1 86:1 92:1 
4 3:1 18:1 39:1 41:1 55:1 56:1 57:1 
0.075877085868246555 12:1 18:1 32:1 55:1 68:1 92:1 
0.70688206506977258 0:1 1:1 18:1 49:1 55:1 69:1 81:1 92:1 97:1 
0.13005209880500837 7:1 18:1 23:1 37:1 38:1 55:1 92:1 
4 12:1 18:1 55:1 75:1 92:1 96:1 
0.5847231965264692 1:1 18:1 22:1 49:1 55:1 92:1 
0.16751953700503897 9:1 12:1 18:1 39:1 55:1 56:1 57:1 83:1 92:1 
4 12:1 18:1 22:1 55:1 78:1 86:1 92:1 93:1 
0.34560504172045481 18:1 38:1 55:1 67:1 68:1 81:1 92:1 97:1 102:1 108:1 
0.11571218051555734 7:1 18:1 23:1 28:1 34:1 55:1 74:1 75:1 92:1 
4 18:1 39:1 55:1 56:1 57:1 86:1 92:1 
0.53904233725644557 18:1 31:1 37:1 38:1 55:1 81:1 92:1 97:1 
4 3:1 18:1 41:1 55:1 
0.091741088457452075 0:1 7:1 18:1 23:1 38:1 55:1 92:1 
0.36370220376053991 18:1 37:1 44:1 55:1 60:1 74:1 75:1 92:1 
0.43117891387284496 18:1 55:1 60:1 65:1 68:1 70:1 86:1 92:1 
0.28492712512504198 1:1 18:1 55:1 60:1 75:1 83:1 86:1 92:1 
0.069312935528252864 1:1 9:1 18:1 38:1 46:1 55:1 83:1 92:1 
0.38228249666003095 18:1 39:1 55:1 56:1 57:1 92:1 96:1 105:1 
0.37741033545377645 18:1 23:1 29:1 37:1 55:1 75:1 92:1 104:1 
2.4005550084898291 18:1 19:1 22:1 39:1 55:1 56:1 57:1 75:1 92:1 96:1 104:1 110:1 
0.76969277483557141 1:1 18:1 22:1 30:1 36:1 55:1 56:1 59:1 75:1 92:1 93:1 96:1 
1.0543335813974435 1:1 18:1 19:1 22:1 38:1 55:1 59:1 67:1 73:1 92:1 93:1 
4 18:1 19:1 38:1 55:1 56:1 59:1 92:1 93:1 
4 18:1 55:1 78:1 92:1 96:1 
3.1638185990346184 4:1 18:1 22:1 55:1 77:1 96:1 
2.9239374252372254 3:1 22:1 41:1 55:1 59:1 
4 3:1 12:1 18:1 39:1 41:1 55:1 56:1 57:1 
3.9288930575005816 3:1 18:1 39:1 41:1 55:1 56:1 57:1 
0.59472837662674272 18:1 23:1 55:1 65:1 86:1 92:1 93:1 
0.16028971753306717 1:1 18:1 30:1 44:1 55:1 60:1 92:1 
1.2265147903454767 8:1 12:1 18:1 55:1 92:1 
0.78729986833631349 18:1 45:1 49:1 55:1 
0.039668836983888248 18:1 59:1 92:1 97:1 102:1 
0.081794831678170796 18:1 33:1 55:1 92:1 102:1 
0.99820532164724796 18:1 34:1 55:1 69:1 92:1 97:1 102:1 
1.0054876860018398 18:1 23:1 28:1 55:1 71:1 
0.61901362311768515 28:1 55:1 82:1 86:1 92:1 
1.3401274157130187 8:1 12:1 18:1 65:1 92:1 
0.32998103602291945 18:1 55:1 92:1 96:1 108:1 
1.1327501981663401 18:1 55:1 59:1 71:1 92:1 105:1 
1.4480245414468556 18:1 55:1 68:1 92:1 96:1 
4 12:1 18:1 55:1 82:1 92:1 
2.1185741906895443 8:1 18:1 49:1 55:1 92:1 
3.1801521203702334 18:1 55:1 78:1 92:1 
4 4:1 18:1 55:1 77:1 92:1 96:1 105:1 
4 3:1 18:1 22:1 31:1 41:1 55:1 
0.42375941260352479 18:1 22:1 25:1 27:1 76:1 78:1 92:1 93:1 94:1 
0.052793926023140099 2:1 4:1 18:1 19:1 20:1 55:1 59:1 62:1 64:1 77:1 92:1 
2.9685454133440965 18:1 38:1 55:1 59:1 81:1 92:1 105:1 
0.22570004866071033 18:1 29:1 44:1 55:1 68:1 92:1 97:1 99:1 102:1 
4 18:1 39:1 55:1 56:1 57:1 86:1 92:1 
0.3388109321160519 11:1 18:1 46:1 55:1 85:1 92:1 93:1 
1.1559405527301516 11:1 18:1 19:1 48:1 55:1 83:1 92:1 
3.1371485359575502 9:1 18:1 48:1 55:1 56:1 84:1 92:1 
4 18:1 19:1 55:1 56:1 74:1 92:1 93:1 
3.6470251657377508 0:1 18:1 19:1 55:1 56:1 74:1 92:1 93:1 
1.1162439906246426 18:1 19:1 37:1 55:1 56:1 92:1 93:1 
0.10136124855912272 9:1 18:1 48:1 53:1 55:1 59:1 84:1 92:1 103:1 
0.0065015711638163453 10:1 18:1 29:1 46:1 55:1 85:1 90:1 92:1 96:1 103:1 
0.58547136874066663 8:1 18:1 45:1 55:1 86:1 92:1 93:1 
1.4393751927867116 18:1 29:1 32:1 59:1 78:1 92:1 
0.45551253719224016 12:1 18:1 34:1 39:1 55:1 56:1 57:1 92:1 
1.4659129406246116 18:1 49:1 55:1 71:1 92:1 
0.4895520702819684 0:1 1:1 18:1 55:1 59:1 75:1 92:1 104:1 
0.3587268827395142 18:1 39:1 55:1 56:1 57:1 76:1 78:1 92:1 93:1 94:1 
0.52551928918791235 7:1 18:1 22:1 23:1 28:1 55:1 73:1 75:1 92:1 97:1 104:1 
1.0524934435154532 1:1 18:1 23:1 30:1 44:1 55:1 59:1 60:1 65:1 74:1 75:1 92:1 
0.057451214786852098 0:1 1:1 18:1 38:1 55:1 60:1 67:1 92:1 
3.5826813832364603 7:1 18:1 22:1 23:1 55:1 74:1 92:1 
1.4778161458344334 0:1 18:1 44:1 55:1 59:1 60:1 75:1 92:1 97:1 104:1 107:1 
1.220372638176267 18:1 23:1 44:1 55:1 60:1 74:1 92:1 
1.7797251220445023 18:1 23:1 39:1 55:1 56:1 57:1 92:1 100:1 108:1 
0.14202492613971904 25:1 34:1 55:1 92:1 99:1 102:1 
0.59150766611311423 18:1 26:1 44:1 60:1 81:1 92:1 
0.29490554679135766 7:1 18:1 55:1 63:1 92:1 99:1 102:1 
0.651496901374509 16:1 18:1 44:1 55:1 68:1 81:1 108:1 
0.19818136684573731 18:1 22:1 23:1 44:1 71:1 92:1 100:1 
0.57827439258099655 9:1 18:1 25:1 46:1 55:1 83:1 92:1 102:1 
0.44440723907082152 9:1 18:1 22:1 28:1 46:1 55:1 66:1 74:1 83:1 92:1 
0.28097130093875561 18:1 23:1 26:1 42:1 49:1 50:1 51:1 53:1 55:1 56:1 57:1 92:1 96:1 97:1 108:1 
0.10478462370294671 18:1 23:1 44:1 55:1 92:1 99:1 102:1 
0.49792358359794342 18:1 36:1 44:1 55:1 70:1 82:1 92:1 
0.19688326932759384 18:1 38:1 55:1 67:1 76:1 92:1 93:1 94:1 
0.4653226207305447 18:1 31:1 42:1 49:1 50:1 51:1 53:1 55:1 56:1 57:1 81:1 92:1 97:1 108:1 
2.6414904481068322 18:1 32:1 44:1 55:1 60:1 71:1 74:1 86:1 92:1 
1.9641881241754591 18:1 23:1 34:1 55:1 74:1 92:1 99:1 102:1 
0.22189686291556218 0:1 18:1 25:1 28:1 55:1 60:1 71:1 76:1 92:1 93:1 94:1 
0.92931661537519128 18:1 23:1 55:1 59:1 60:1 92:1 99:1 100:1 103:1 
0.082558701032952181 18:1 44:1 55:1 92:1 97:1 
4 18:1 25:1 28:1 55:1 60:1 74:1 86:1 92:1 
3.8193047484039089 18:1 39:1 55:1 56:1 57:1 81:1 92:1 97:1 
0.49113813568290871 18:1 25:1 28:1 55:1 71:1 74:1 92:1 100:1 
0.64001074600593 0:1 18:1 26:1 55:1 62:1 65:1 74:1 92:1 
4 18:1 25:1 28:1 55:1 74:1 86:1 92:1 
2.2107016354525268 18:1 28:1 34:1 55:1 59:1 74:1 92:1 
4 18:1 55:1 81:1 92:1 103:1 
2.7196665777466316 7:1 18:1 29:1 55:1 92:1 100:1 102:1 108:1 
1.7867361652163873 18:1 26:1 28:1 34:1 44:1 55:1 66:1 74:1 92:1 
2.6408520404488027 0:1 18:1 55:1 63:1 65:1 71:1 74:1 92:1 
3.8265915045711463 7:1 18:1 25:1 34:1 55:1 92:1 96:1 102:1 
1.5668602056034859 18:1 22:1 28:1 44:1 55:1 62:1 71:1 74:1 92:1 
4 0:1 18:1 55:1 59:1 65:1 74:1 92:1 
1.9166921856026482 0:1 18:1 55:1 62:1 65:1 75:1 92:1 
0.86648465968310029 18:1 37:1 55:1 60:1 92:1 96:1 
1.3992067136467612 18:1 22:1 55:1 92:1 99:1 108:1 
0.31055416419187065 9:1 18:1 23:1 55:1 83:1 92:1 99:1 100:1 
0.11050743212931896 9:1 18:1 25:1 26:1 46:1 55:1 60:1 83:1 92:1 97:1 
4 18:1 22:1 55:1 81:1 92:1 102:1 
4 7:1 18:1 28:1 55:1 59:1 92:1 102:1 
0.94930545247560394 18:1 28:1 44:1 55:1 65:1 74:1 92:1 
0.86845549037209235 1:1 18:1 22:1 39:1 55:1 56:1 57:1 92:1 105:1 
0.34898804422469798 18:1 31:1 38:1 55:1 59:1 76:1 92:1 93:1 94:1 
0.66952338701009984 1:1 18:1 31:1 44:1 55:1 60:1 68:1 75:1 92:1 96:1 104:1 
1.0303323847164214 18:1 55:1 81:1 92:1 99:1 108:1 
1.5607171310545165 7:1 18:1 25:1 34:1 55:1 92:1 99:1 102:1 
3.7773505285652256 7:1 18:1 23:1 44:1 55:1 92:1 99:1 102:1 
0.12159097183134411 7:1 18:1 23:1 39:1 55:1 56:1 57:1 81:1 92:1 99:1 108:1 
3.148057452383382 7:1 18:1 25:1 34:1 44:1 55:1 60:1 92:1 99:1 102:1 
2.4130968245726829 0:1 18:1 37:1 55:1 75:1 92:1 
0.64879805131978852 18:1 39:1 55:1 56:1 57:1 83:1 86:1 92:1 
0.085826233188355958 18:1 55:1 63:1 65:1 71:1 74:1 92:1 
1.1934874467402405 0:1 18:1 55:1 74:1 92:1 
0.23171054086766524 18:1 22:1 39:1 55:1 56:1 57:1 92:1 105:1 
2.9821356162872594 18:1 31:1 55:1 59:1 74:1 92:1 
0.060194028637388229 7:1 18:1 55:1 60:1 92:1 99:1 102:1 
1.2027042842792004 12:1 18:1 49:1 55:1 76:1 92:1 93:1 94:1 
0.2199999843628864 9:1 55:1 81:1 83:1 92:1 97:1 
1.1755636038683908 7:1 9:1 18:1 23:1 46:1 83:1 92:1 
1.8279457190431918 9:1 18:1 44:1 46:1 55:1 60:1 83:1 92:1 99:1 102:1 
1.0013038238780363 0:1 9:1 12:1 18:1 46:1 55:1 62:1 65:1 75:1 83:1 92:1 
1.5134820308140149 1:1 9:1 18:1 37:1 46:1 49:1 55:1 76:1 92:1 93:1 94:1 
4 18:1 55:1 56:1 92:1 97:1 
0.10297585757809306 18:1 23:1 55:1 81:1 92:1 
2.4427098067634936 7:1 18:1 55:1 60:1 92:1 93:1 99:1 102:1 
0.70112622813899728 18:1 19:1 25:1 28:1 44:1 55:1 74:1 92:1 93:1 
1.4144603434148806 0:1 18:1 19:1 55:1 56:1 62:1 65:1 74:1 92:1 93:1 
4 0:1 18:1 19:1 37:1 55:1 56:1 75:1 92:1 93:1 
4 1:1 18:1 19:1 37:1 55:1 56:1 92:1 
0.18424800146691561 18:1 42:1 49:1 50:1 51:1 53:1 55:1 56:1 57:1 81:1 92:1 97:1 99:1 
0.53348440359515581 18:1 23:1 55:1 59:1 92:1 
0.012918356271722272 5:1 12:1 13:1 14:1 16:1 18:1 19:1 20:1 92:1 96:1 97:1 
4 18:1 28:1 55:1 74:1 86:1 92:1 
0.71048452972669129 0:1 12:1 18:1 55:1 65:1 76:1 92:1 93:1 94:1 
4 18:1 44:1 55:1 59:1 92:1 99:1 102:1 
1.9857781819345941 5:1 12:1 13:1 18:1 19:1 20:1 55:1 92:1 96:1 102:1 
2.0890920425476587 18:1 22:1 28:1 42:1 49:1 50:1 55:1 56:1 57:1 92:1 
4 18:1 55:1 59:1 65:1 81:1 92:1 97:1 
0.80727392963793432 18:1 28:1 55:1 68:1 92:1 105:1 
4 18:1 22:1 39:1 55:1 56:1 57:1 92:1 97:1 
0.20486860423145617 18:1 23:1 55:1 59:1 92:1 
4 18:1 22:1 39:1 55:1 56:1 57:1 92:1 97:1 
0.18270002159308915 18:1 23:1 55:1 59:1 92:1 
4 18:1 55:1 92:1 93:1 96:1 
0.65388239856565022 18:1 33:1 55:1 60:1 92:1 102:1 108:1 
0.080101801325084612 18:1 28:1 34:1 55:1 70:1 92:1 100:1 
0.58689535174513452 18:1 22:1 42:1 49:1 50:1 51:1 53:1 55:1 56:1 57:1 81:1 92:1 96:1 97:1 102:1 
0.801217031186782 7:1 18:1 22:1 23:1 28:1 55:1 59:1 92:1 102:1 110:1 
0.54713232230973508 18:1 28:1 36:1 44:1 55:1 59:1 60:1 65:1 92:1 102:1 
0.16407696689320111 1:1 18:1 22:1 23:1 30:1 42:1 43:1 49:1 50:1 51:1 53:1 55:1 56:1 57:1 76:1 92:1 93:1 94:1 
0.26815633921966869 18:1 23:1 55:1 59:1 75:1 92:1 96:1 104:1 
0.0351916814920143 5:1 12:1 13:1 14:1 16:1 18:1 19:1 20:1 86:1 92:1 110:1 
0.31127660394700324 12:1 18:1 36:1 42:1 49:1 50:1 51:1 53:1 55:1 56:1 57:1 84:1 92:1 
0.21701151846454925 18:1 31:1 55:1 81:1 92:1 96:1 97:1 
0.10419589365294651 7:1 18:1 22:1 23:1 55:1 68:1 92:1 99:1 102:1 
1.7173084034246648 7:1 18:1 23:1 55:1 60:1 92:1 97:1 99:1 102:1 
0.60243278484087082 18:1 23:1 25:1 28:1 44:1 55:1 60:1 92:1 97:1 
0.11820928594250814 5:1 12:1 13:1 14:1 16:1 18:1 19:1 20:1 92:1 97:1 99:1 100:1 102:1 
0.37758640808970745 18:1 55:1 68:1 92:1 96:1 
0.17846592029922537 8:1 18:1 55:1 82:1 92:1 
4 18:1 44:1 55:1 68:1 92:1 
2.5101724767431137 7:1 18:1 23:1 55:1 74:1 92:1 
2.6279888737693202 0:1 18:1 44:1 55:1 60:1 75:1 92:1 
1.6722923832329406 1:1 18:1 37:1 55:1 76:1 92:1 93:1 94:1 
0.29979690289017741 18:1 19:1 22:1 36:1 55:1 92:1 93:1 94:1 
4 3:1 18:1 39:1 41:1 55:1 56:1 57:1 
2.7563558008036475 0:1 18:1 22:1 55:1 60:1 74:1 92:1 96:1 
0.20263480524865748 2:1 4:1 18:1 19:1 20:1 44:1 55:1 68:1 77:1 92:1 
4 3:1 18:1 39:1 41:1 55:1 56:1 57:1 
0.1939127131542257 1:1 18:1 23:1 30:1 37:1 38:1 55:1 81:1 92:1 97:1 
0.09045985200737526 18:1 26:1 27:1 46:1 55:1 63:1 92:1 101:1 107:1 
0.29516964280452124 18:1 34:1 46:1 55:1 63:1 92:1 100:1 
0.12910542562850172 18:1 25:1 34:1 55:1 92:1 
0.31980181865400242 1:1 18:1 25:1 28:1 34:1 55:1 92:1 
1.4510401499847267 18:1 38:1 55:1 62:1 65:1 71:1 81:1 92:1 
0.11764642655222296 0:1 1:1 15:1 16:1 18:1 22:1 37:1 38:1 52:1 53:1 55:1 59:1 74:1 75:1 89:1 90:1 91:1 92:1 96:1 
0.21910690620669759 0:1 1:1 15:1 16:1 17:1 18:1 22:1 37:1 38:1 52:1 53:1 55:1 59:1 86:1 87:1 89:1 90:1 91:1 92:1 93:1 
0.018777172515954486 12:1 13:1 15:1 16:1 17:1 18:1 19:1 37:1 38:1 52:1 53:1 54:1 55:1 59:1 89:1 90:1 91:1 92:1 
2.8536457901137822 18:1 31:1 55:1 59:1 92:1 
1.9221021578442248 18:1 55:1 68:1 81:1 92:1 99:1 102:1 108:1 
0.34405007714519664 7:1 18:1 25:1 28:1 34:1 55:1 92:1 93:1 
4 18:1 39:1 55:1 56:1 57:1 81:1 92:1 97:1 
4 7:1 18:1 23:1 55:1 92:1 99:1 102:1 
4 18:1 25:1 28:1 44:1 55:1 60:1 74:1 92:1 
3.1464605291293877 18:1 19:1 55:1 59:1 92:1 96:1 
4 18:1 22:1 55:1 56:1 92:1 
2.4151932362697446 7:1 18:1 23:1 55:1 86:1 92:1 
1.2601094944983435 6:1 12:1 13:1 18:1 19:1 20:1 39:1 55:1 56:1 57:1 92:1 93:1 103:1 
0.046728915804266302 6:1 12:1 13:1 18:1 19:1 20:1 55:1 56:1 66:1 92:1 105:1 107:1 
0.34905624470437674 18:1 31:1 33:1 43:1 49:1 50:1 55:1 56:1 57:1 92:1 97:1 103:1 
0.10665536930147076 7:1 18:1 23:1 25:1 28:1 55:1 60:1 92:1 
0.94950473434248706 6:1 12:1 13:1 14:1 18:1 19:1 20:1 55:1 68:1 92:1 93:1 103:1 
0.85825907326563899 18:1 19:1 29:1 43:1 49:1 50:1 51:1 55:1 56:1 57:1 80:1 86:1 87:1 88:1 92:1 93:1 94:1 
1.0958702362083133 6:1 12:1 13:1 14:1 18:1 19:1 20:1 55:1 56:1 66:1 92:1 97:1 107:1 
0.15843272440946427 18:1 23:1 33:1 43:1 49:1 50:1 51:1 55:1 56:1 57:1 90:1 92:1 96:1 
1.1593032483776322 7:1 18:1 23:1 25:1 28:1 55:1 59:1 68:1 92:1 
0.31560104474508061 7:1 18:1 25:1 55:1 92:1 97:1 
1.2789441275242153 18:1 55:1 68:1 92:1 96:1 
0.14683641257502408 18:1 22:1 55:1 80:1 86:1 87:1 88:1 92:1 93:1 94:1 
0.80391776635799272 12:1 18:1 55:1 59:1 76:1 92:1 93:1 94:1 
0.63028690330750303 18:1 19:1 39:1 55:1 56:1 57:1 92:1 93:1 103:1 
0.14208854919550051 18:1 55:1 92:1 100:1 108:1 
1.6909033342088549 18:1 19:1 39:1 55:1 56:1 57:1 92:1 93:1 103:1 
0.94471174950626302 18:1 23:1 38:1 55:1 74:1 81:1 92:1 97:1 
1.5083829032778213 0:1 7:1 18:1 23:1 55:1 60:1 74:1 75:1 92:1 
4 3:1 12:1 18:1 22:1 39:1 41:1 55:1 56:1 57:1 
3.9846598617070152 18:1 22:1 55:1 74:1 75:1 86:1 92:1 
0.21285119701557975 3:1 18:1 22:1 23:1 32:1 41:1 55:1 60:1 69:1 
4 18:1 38:1 55:1 59:1 82:1 92:1 
0.91331788804625202 18:1 29:1 45:1 55:1 82:1 92:1 
1.2890577512963188 4:1 18:1 22:1 23:1 39:1 55:1 56:1 57:1 77:1 92:1 93:1 
4 3:1 18:1 19:1 41:1 55:1 59:1 60:1 
0.31453627918061233 1:1 18:1 55:1 78:1 80:1 86:1 87:1 88:1 90:1 92:1 93:1 94:1 
0.015127574899568612 4:1 6:1 12:1 13:1 14:1 16:1 18:1 19:1 20:1 38:1 55:1 77:1 92:1 
0.1252836631348406 3:1 18:1 41:1 43:1 49:1 50:1 51:1 53:1 55:1 56:1 57:1 
0.65279082279139855 12:1 18:1 38:1 55:1 92:1 97:1 99:1 102:1 
0.21681867598032223 12:1 13:1 14:1 16:1 18:1 19:1 20:1 38:1 53:1 55:1 59:1 67:1 90:1 92:1 
1.160641211284702 7:1 18:1 55:1 92:1 
0.42298278427094432 18:1 44:1 55:1 92:1 97:1 
4 18:1 22:1 39:1 55:1 56:1 57:1 86:1 87:1 88:1 92:1 93:1 94:1 
0.068901711170510777 18:1 29:1 33:1 37:1 38:1 49:1 55:1 69:1 76:1 92:1 93:1 94:1 
0.44868278880006091 1:1 16:1 18:1 22:1 36:1 37:1 38:1 53:1 55:1 86:1 87:1 88:1 90:1 92:1 93:1 94:1 
4 1:1 18:1 39:1 55:1 56:1 57:1 86:1 87:1 88:1 92:1 93:1 94:1 
0.78898024999921745 1:1 18:1 22:1 55:1 86:1 92:1 
1.1947183079026675 12:1 18:1 38:1 55:1 59:1 75:1 86:1 92:1 
0.71625189079756912 18:1 25:1 34:1 38:1 55:1 68:1 72:1 74:1 75:1 92:1 
0.43304820441415515 11:1 12:1 18:1 37:1 48:1 49:1 55:1 60:1 74:1 84:1 92:1 
1.4010519792530505 0:1 10:1 18:1 48:1 49:1 55:1 84:1 86:1 92:1 
0.17929281791174512 10:1 12:1 18:1 37:1 47:1 55:1 74:1 84:1 92:1 
0.042722424665755522 0:1 10:1 18:1 47:1 49:1 55:1 84:1 86:1 92:1 
1.0133478269417167 10:1 12:1 18:1 37:1 47:1 55:1 74:1 85:1 86:1 92:1 
1.2584225747701721 0:1 11:1 12:1 18:1 47:1 49:1 55:1 85:1 86:1 92:1 
0.04404062976723698 11:1 12:1 18:1 37:1 48:1 49:1 55:1 84:1 86:1 92:1 
4 3:1 18:1 39:1 41:1 55:1 56:1 57:1 
3.7882008350283529 18:1 22:1 55:1 59:1 71:1 78:1 92:1 96:1 
3.2894608094499396 4:1 18:1 22:1 55:1 59:1 77:1 92:1 96:1 97:1 
4 3:1 18:1 22:1 23:1 41:1 55:1 59:1 
1.3637923698195797 0:1 7:1 18:1 55:1 75:1 92:1 
0.59702256727263103 1:1 18:1 37:1 44:1 55:1 92:1 
0.96018876171175049 18:1 38:1 55:1 74:1 78:1 92:1 96:1 97:1 99:1 101:1 103:1 105:1 106:1 107:1 108:1 109:1 
0.70276355391434941 0:1 4:1 18:1 22:1 23:1 25:1 27:1 29:1 31:1 32:1 33:1 34:1 35:1 55:1 77:1 92:1 
0.73398061212026278 3:1 18:1 37:1 41:1 55:1 59:1 60:1 62:1 64:1 66:1 68:1 69:1 70:1 71:1 72:1 
0.71682652482431375 10:1 18:1 47:1 55:1 84:1 92:1 
0.16002191133999574 22:1 39:1 55:1 56:1 57:1 86:1 87:1 88:1 92:1 93:1 94:1 
0.68940505002040042 18:1 55:1 59:1 75:1 92:1 
4 18:1 55:1 78:1 92:1 
1.5239641051533368 4:1 18:1 55:1 77:1 92:1 
4 3:1 18:1 41:1 55:1 
4 18:1 39:1 55:1 56:1 57:1 78:1 92:1 96:1 
4 18:1 29:1 55:1 74:1 92:1 
1.3365238008282947 3:1 12:1 18:1 41:1 46:1 55:1 
0.89700675926306306 18:1 44:1 55:1 92:1 
1.7099873675372652 18:1 26:1 55:1 63:1 71:1 92:1 100:1 
4 18:1 38:1 55:1 86:1 92:1 93:1 
4 3:1 18:1 39:1 41:1 55:1 56:1 57:1 
4 4:1 18:1 39:1 55:1 56:1 57:1 77:1 92:1 
4 3:1 18:1 41:1 55:1 
0.45001252832606981 1:1 18:1 55:1 59:1 75:1 92:1 104:1 
2.4360293690800372 8:1 18:1 22:1 39:1 55:1 56:1 57:1 92:1 
1.1503298141475762 18:1 45:1 55:1 59:1 92:1 
1.1659413165569876 4:1 18:1 22:1 29:1 77:1 86:1 92:1 
0.76206464938043017 18:1 26:1 29:1 55:1 63:1 92:1 103:1 
0.2566323469550652 18:1 29:1 55:1 63:1 66:1 92:1 100:1 
0.024981383415535841 0:1 1:1 18:1 44:1 55:1 60:1 62:1 63:1 92:1 103:1 
4 11:1 12:1 18:1 19:1 39:1 55:1 56:1 57:1 86:1 92:1 93:1 
1.0382486970329941 18:1 23:1 38:1 55:1 59:1 92:1 97:1 99:1 100:1 102:1 
0.31993340106658169 18:1 23:1 25:1 26:1 28:1 55:1 60:1 92:1 100:1 
0.30195973868148968 15:1 16:1 17:1 18:1 29:1 33:1 38:1 52:1 53:1 54:1 55:1 59:1 89:1 90:1 91:1 92:1 103:1 107:1 
0.13472755593300378 15:1 16:1 17:1 18:1 29:1 33:1 52:1 53:1 54:1 55:1 66:1 70:1 86:1 87:1 89:1 90:1 92:1 93:1 
0.14922717830930432 12:1 13:1 15:1 16:1 18:1 19:1 52:1 53:1 54:1 55:1 66:1 70:1 89:1 90:1 91:1 92:1 93:1 103:1 
0.1959593382975541 15:1 16:1 17:1 18:1 19:1 29:1 49:1 50:1 52:1 53:1 55:1 56:1 89:1 90:1 91:1 92:1 97:1 99:1 103:1 
0.30995377515578421 15:1 16:1 17:1 18:1 23:1 25:1 29:1 52:1 53:1 54:1 55:1 56:1 66:1 82:1 89:1 90:1 91:1 92:1 
0.033305783994875729 8:1 15:1 16:1 17:1 18:1 52:1 53:1 54:1 55:1 60:1 62:1 66:1 89:1 90:1 91:1 92:1 93:1 
1.5065831565878263 18:1 31:1 55:1 92:1 99:1 102:1 
1.2438139977300919 18:1 25:1 28:1 55:1 68:1 92:1 
2.8965788931211178 18:1 38:1 55:1 59:1 67:1 92:1 108:1 
3.0821497619307414 18:1 34:1 55:1 92:1 102:1 103:1 
2.0517858783490523 18:1 28:1 29:1 55:1 71:1 81:1 92:1 
0.55232002010833792 7:1 18:1 55:1 65:1 66:1 92:1 
0.29530696682514945 18:1 34:1 55:1 92:1 108:1 
0.12625883368466956 18:1 34:1 55:1 71:1 92:1 108:1 
4 3:1 18:1 39:1 41:1 55:1 56:1 57:1 
0.3439443932533503 3:1 18:1 26:1 31:1 34:1 39:1 41:1 55:1 56:1 57:1 
0.15913951486047667 18:1 64:1 68:1 92:1 96:1 100:1 101:1 105:1 
0.39819482361420167 18:1 25:1 55:1 59:1 92:1 101:1 
0.28402616839053746 18:1 27:1 55:1 62:1 92:1 96:1 
0.21016999549749463 18:1 22:1 55:1 64:1 92:1 100:1 
3.1396423332195602 12:1 18:1 49:1 55:1 92:1 
0.56936458727319617 18:1 49:1 55:1 86:1 92:1 
0.81451984125508448 12:1 18:1 55:1 86:1 92:1 
0.64673611293109157 12:1 18:1 55:1 74:1 92:1 
0.11574721800273917 0:1 18:1 49:1 55:1 74:1 92:1 
0.21941302174488414 0:1 18:1 37:1 55:1 86:1 92:1 
2.7855598198970517 12:1 18:1 39:1 55:1 56:1 57:1 92:1 
0.17849529646667822 18:1 49:1 55:1 74:1 92:1 
2.1424962934070559 12:1 18:1 37:1 55:1 92:1 108:1 
4 18:1 34:1 49:1 55:1 92:1 99:1 
0.53979898544614302 18:1 25:1 55:1 71:1 74:1 92:1 
4 12:1 18:1 39:1 55:1 56:1 57:1 92:1 
0.20623354697198565 12:1 18:1 37:1 55:1 74:1 86:1 92:1 
0.17739928782890482 18:1 49:1 55:1 74:1 92:1 
1.4733333250880141 0:1 18:1 55:1 74:1 92:1 
0.52659400562513736 18:1 49:1 55:1 92:1 97:1 
0.53255895340716086 0:1 18:1 55:1 60:1 74:1 92:1 
4 12:1 18:1 39:1 55:1 56:1 57:1 92:1 
0.035976961486099322 12:1 18:1 37:1 53:1 55:1 86:1 92:1 99:1 108:1 
0.62014928769023603 0:1 18:1 32:1 44:1 49:1 55:1 62:1 65:1 71:1 86:1 92:1 
0.29686468597506138 12:1 18:1 37:1 55:1 69:1 86:1 92:1 96:1 99:1 
0.46940387949751616 12:1 18:1 22:1 25:1 49:1 55:1 74:1 92:1 106:1 
0.36145518747821331 0:1 18:1 32:1 49:1 55:1 59:1 62:1 92:1 
0.0076404268887262997 12:1 18:1 37:1 53:1 55:1 69:1 92:1 97:1 99:1 
4 18:1 49:1 55:1 92:1 
3.8067083133716526 12:1 18:1 49:1 55:1 92:1 
4 12:1 18:1 49:1 55:1 92:1 
0.7608991481896421 12:1 18:1 49:1 55:1 86:1 92:1 
4 12:1 18:1 49:1 55:1 92:1 
4 18:1 49:1 55:1 74:1 92:1 
4 12:1 18:1 39:1 55:1 56:1 57:1 92:1 
2.3246128528320318 12:1 18:1 55:1 74:1 92:1 
0.1026810912717734 0:1 18:1 49:1 55:1 86:1 92:1 
3.9503903613681879 0:1 18:1 49:1 55:1 86:1 92:1 
1.8597615570294346 12:1 18:1 37:1 55:1 74:1 86:1 92:1 
0.11290789821457881 12:1 18:1 37:1 53:1 55:1 74:1 86:1 92:1 
1.9979683223501221 12:1 18:1 55:1 59:1 69:1 92:1 
4 18:1 49:1 55:1 74:1 92:1 
0.71199114556855425 0:1 18:1 37:1 55:1 86:1 92:1 
0.41148571618946228 18:1 49:1 55:1 76:1 92:1 93:1 94:1 
0.30041497341609091 0:1 18:1 39:1 55:1 56:1 57:1 86:1 92:1 
1.612567954074732 12:1 18:1 37:1 55:1 92:1 
4 18:1 49:1 55:1 92:1 
0.021563243083666341 0:1 18:1 39:1 55:1 56:1 57:1 86:1 92:1 
3.773594490611015 12:1 18:1 37:1 55:1 92:1 
4 12:1 18:1 55:1 74:1 92:1 
0.78368954313607031 0:1 18:1 49:1 55:1 92:1 97:1 
0.93890003396735933 12:1 18:1 49:1 55:1 86:1 92:1 
2.298155770931138 0:1 18:1 37:1 55:1 74:1 92:1 
4 12:1 18:1 39:1 55:1 56:1 57:1 92:1 
0.25822064363882846 0:1 18:1 55:1 60:1 86:1 87:1 88:1 90:1 92:1 93:1 94:1 
0.041202005650946422 2:1 18:1 19:1 20:1 39:1 55:1 56:1 57:1 74:1 78:1 86:1 92:1 
4 0:1 4:1 12:1 18:1 39:1 55:1 56:1 57:1 77:1 86:1 92:1 
4 3:1 12:1 18:1 37:1 41:1 49:1 55:1 
4 3:1 18:1 39:1 41:1 55:1 56:1 57:1 
0.35953732752808515 1:1 16:1 18:1 22:1 36:1 37:1 38:1 49:1 53:1 55:1 76:1 92:1 93:1 94:1 
0.8160378577314269 12:1 18:1 38:1 55:1 59:1 75:1 92:1 
0.46370715011758817 12:1 13:1 14:1 16:1 17:1 18:1 19:1 20:1 49:1 53:1 54:1 55:1 56:1 75:1 90:1 91:1 92:1 99:1 102:1 103:1 104:1 
0.46662061901548124 1:1 16:1 17:1 18:1 25:1 28:1 29:1 30:1 49:1 50:1 51:1 53:1 54:1 55:1 56:1 57:1 86:1 90:1 91:1 92:1 
0.45377092857501378 12:1 16:1 17:1 18:1 38:1 53:1 54:1 55:1 62:1 65:1 66:1 67:1 86:1 87:1 90:1 91:1 92:1 93:1 
0.19952181095301721 18:1 35:1 39:1 55:1 56:1 57:1 76:1 78:1 92:1 93:1 94:1 
4 18:1 39:1 55:1 56:1 57:1 86:1 92:1 
0.0067823045624146568 4:1 6:1 12:1 13:1 14:1 16:1 18:1 19:1 20:1 39:1 55:1 56:1 57:1 77:1 92:1 97:1 105:1 
1.4046771128478761 18:1 23:1 55:1 59:1 62:1 92:1 
1.3465088047988893 4:1 18:1 22:1 26:1 36:1 55:1 77:1 86:1 92:1 
2.3693743612043119 3:1 12:1 18:1 41:1 55:1 59:1 63:1 73:1 
0.21329137943432647 18:1 25:1 28:1 34:1 39:1 55:1 56:1 57:1 92:1 97:1 102:1 106:1 
0.030732927713416076 18:1 25:1 28:1 34:1 39:1 55:1 56:1 57:1 92:1 97:1 102:1 106:1 
0.0053920363069198543 5:1 12:1 13:1 14:1 16:1 18:1 19:1 20:1 39:1 55:1 56:1 57:1 75:1 78:1 92:1 
0.0088885563527861533 1:1 4:1 18:1 42:1 49:1 50:1 51:1 53:1 55:1 56:1 57:1 77:1 92:1 
4 3:1 18:1 38:1 41:1 55:1 
0.12462777959570741 1:1 18:1 30:1 31:1 55:1 60:1 75:1 92:1 
0.55016902859617867 1:1 18:1 38:1 55:1 67:1 68:1 92:1 103:1 
4 3:1 18:1 39:1 41:1 55:1 56:1 57:1 
1.1013816593313879 18:1 23:1 28:1 55:1 60:1 65:1 92:1 102:1 
4 4:1 18:1 39:1 55:1 56:1 57:1 77:1 92:1 
4 3:1 18:1 41:1 55:1 
0.098530519475514569 18:1 23:1 31:1 38:1 55:1 59:1 67:1 75:1 92:1 104:1 
1.2534595933095805 1:1 18:1 30:1 55:1 60:1 68:1 75:1 92:1 104:1 
0.0096153594687912996 0:1 18:1 55:1 59:1 60:1 66:1 70:1 71:1 76:1 92:1 93:1 94:1 
0.46136314878661266 0:1 18:1 55:1 74:1 92:1 
0.16082485297763113 18:1 23:1 36:1 55:1 60:1 76:1 78:1 83:1 92:1 93:1 94:1 
2.6081165838975093 0:1 4:1 18:1 74:1 77:1 92:1 96:1 
4 0:1 3:1 18:1 22:1 37:1 41:1 55:1 
0.042563727040473093 18:1 22:1 29:1 31:1 33:1 76:1 92:1 93:1 94:1 
0.00082900475950285009 11:1 18:1 45:1 46:1 55:1 85:1 92:1 93:1 
0.015888127824454864 39:1 47:1 55:1 56:1 57:1 81:1 92:1 99:1 
0.098522549807015927 7:1 18:1 22:1 23:1 29:1 33:1 55:1 59:1 
0.03400939888465325 0:1 4:1 9:1 18:1 22:1 37:1 46:1 55:1 59:1 77:1 92:1 
0.057184700480394965 3:1 18:1 37:1 41:1 46:1 55:1 59:1 
1.7043061966804092 1:1 18:1 37:1 38:1 55:1 86:1 92:1 
0.40474247483060288 12:1 18:1 38:1 55:1 97:1 
0.027870261440231595 9:1 16:1 17:1 18:1 23:1 38:1 46:1 53:1 54:1 55:1 59:1 67:1 76:1 92:1 93:1 94:1 
0.14582867863774029 1:1 3:1 18:1 39:1 41:1 55:1 56:1 57:1 
2.6139014981672584 12:1 18:1 55:1 92:1 
4 12:1 18:1 55:1 92:1 
4 18:1 49:1 55:1 92:1 
0.44454361585842184 18:1 55:1 78:1 92:1 
0.313979663696903 4:1 18:1 55:1 77:1 92:1 
4 3:1 18:1 41:1 55:1 
4 18:1 19:1 49:1 55:1 86:1 92:1 
4 12:1 18:1 55:1 56:1 92:1 103:1 
0.75620087458714602 18:1 23:1 55:1 65:1 68:1 92:1 99:1 102:1 103:1 
0.39628766310453961 18:1 19:1 53:1 55:1 56:1 92:1 101:1 105:1 
0.0043230889210395789 18:1 27:1 31:1 55:1 56:1 92:1 
2.3555307430762755 18:1 55:1 64:1 68:1 92:1 93:1 
1.2914133240434855 18:1 19:1 55:1 92:1 105:1 
3.1389283539217487 18:1 31:1 55:1 56:1 92:1 
0.15525576741439068 18:1 55:1 68:1 92:1 93:1 
1.0594348649856842 18:1 31:1 55:1 60:1 92:1 93:1 
4 18:1 19:1 55:1 68:1 92:1 103:1 
4 12:1 18:1 55:1 92:1 
3.4051413035712708 18:1 49:1 55:1 92:1 102:1 
2.5521131057852151 18:1 22:1 55:1 65:1 86:1 92:1 
2.1547984490933456 12:1 18:1 33:1 53:1 55:1 63:1 92:1 96:1 
2.8515244282899355 18:1 22:1 49:1 55:1 70:1 92:1 100:1 
1.767149783140963 12:1 18:1 19:1 55:1 63:1 73:1 92:1 93:1 
4 18:1 19:1 49:1 55:1 56:1 92:1 93:1 
4 4:1 12:1 18:1 39:1 55:1 56:1 57:1 77:1 92:1 
4 3:1 18:1 41:1 49:1 55:1 
0.21084291089256224 18:1 22:1 29:1 92:1 99:1 103:1 
0.40686916514018784 18:1 25:1 29:1 55:1 59:1 66:1 92:1 
0.4697008161477374 18:1 55:1 59:1 65:1 68:1 76:1 78:1 92:1 93:1 94:1 
4 3:1 18:1 39:1 41:1 55:1 56:1 57:1 
0.2601336978724586 7:1 11:1 15:1 16:1 18:1 49:1 52:1 53:1 55:1 74:1 85:1 89:1 90:1 92:1 99:1 108:1 
0.27966148254099876 0:1 11:1 15:1 16:1 18:1 25:1 34:1 44:1 48:1 52:1 53:1 55:1 76:1 92:1 93:1 94:1 
0.11803677653218124 12:1 15:1 16:1 17:1 18:1 28:1 29:1 49:1 50:1 52:1 53:1 54:1 55:1 56:1 86:1 87:1 89:1 90:1 91:1 92:1 93:1 
4 18:1 22:1 39:1 55:1 56:1 57:1 81:1 92:1 
4 7:1 18:1 55:1 59:1 92:1 
1.0232588097143411 2:1 4:1 18:1 19:1 20:1 39:1 55:1 56:1 57:1 77:1 81:1 92:1 97:1 
0.45803998658895273 3:1 7:1 18:1 23:1 39:1 41:1 55:1 56:1 57:1 
0.1524555807138791 18:1 39:1 55:1 56:1 57:1 76:1 78:1 92:1 93:1 94:1 
1.142733959485744 0:1 18:1 39:1 55:1 56:1 57:1 74:1 92:1 97:1 
0.84143618608417525 0:1 18:1 23:1 37:1 55:1 76:1 78:1 92:1 93:1 94:1 
4 3:1 18:1 39:1 41:1 55:1 56:1 57:1 
4 18:1 25:1 28:1 44:1 55:1 62:1 71:1 74:1 86:1 92:1 
1.3530978174516832 0:1 12:1 18:1 55:1 62:1 65:1 76:1 92:1 93:1 94:1 
0.036466835861108493 12:1 18:1 39:1 55:1 56:1 57:1 76:1 92:1 93:1 94:1 
0.26439513612311399 12:1 13:1 14:1 15:1 16:1 18:1 19:1 20:1 38:1 49:1 53:1 55:1 59:1 86:1 87:1 88:1 89:1 90:1 92:1 93:1 94:1 
0.1209625675655385 0:1 12:1 15:1 16:1 18:1 49:1 50:1 51:1 52:1 53:1 55:1 56:1 57:1 86:1 87:1 88:1 89:1 90:1 92:1 93:1 94:1 
0.0051235036220647042 6:1 12:1 13:1 14:1 16:1 18:1 19:1 20:1 49:1 50:1 51:1 52:1 53:1 55:1 56:1 57:1 81:1 89:1 90:1 92:1 97:1 
0.069133094646664547 6:1 12:1 13:1 14:1 16:1 18:1 19:1 20:1 49:1 50:1 51:1 52:1 53:1 55:1 56:1 57:1 86:1 87:1 88:1 89:1 90:1 92:1 93:1 94:1 
0.033512870529746712 12:1 13:1 14:1 15:1 16:1 18:1 19:1 20:1 43:1 49:1 50:1 51:1 53:1 55:1 56:1 57:1 76:1 92:1 93:1 94:1 
0.024612730824602243 18:1 43:1 49:1 50:1 51:1 53:1 55:1 56:1 57:1 78:1 92:1 97:1 
0.49448191303051919 4:1 18:1 23:1 55:1 77:1 92:1 
0.11244980093318806 3:1 18:1 22:1 
0.28140921950473752 2:1 18:1 19:1 20:1 39:1 55:1 56:1 57:1 78:1 86:1 92:1 
2.086843507492024 18:1 19:1 23:1 55:1 56:1 92:1 93:1 96:1 
0.22790118842098142 18:1 19:1 55:1 56:1 59:1 92:1 93:1 
4 18:1 19:1 55:1 56:1 92:1 97:1 
0.99137670546531464 18:1 23:1 55:1 56:1 92:1 
3.5297459415986592 18:1 55:1 60:1 92:1 93:1 96:1 
0.35703626704203989 18:1 19:1 22:1 55:1 92:1 93:1 
1.011033014598393 18:1 19:1 55:1 56:1 92:1 
4 18:1 19:1 55:1 92:1 93:1 
0.78701998449660793 18:1 19:1 23:1 55:1 56:1 92:1 
2.419679798202933 18:1 55:1 56:1 60:1 86:1 92:1 
4 12:1 18:1 55:1 92:1 93:1 
4 18:1 19:1 49:1 55:1 92:1 93:1 
1.1140407475874445 18:1 19:1 55:1 56:1 60:1 92:1 93:1 97:1 
4 18:1 19:1 55:1 56:1 92:1 93:1 96:1 
0.33092567956291707 18:1 19:1 22:1 55:1 56:1 92:1 93:1 
2.6896867567597846 18:1 19:1 55:1 56:1 59:1 92:1 93:1 
1.0865767163475468 1:1 18:1 37:1 44:1 55:1 60:1 92:1 103:1 
1.9968916100170928 18:1 22:1 55:1 59:1 66:1 72:1 78:1 92:1 96:1 
0.65316889130784295 4:1 18:1 22:1 55:1 59:1 77:1 92:1 96:1 103:1 109:1 
2.7366382619610787 3:1 18:1 22:1 29:1 35:1 41:1 55:1 59:1 
4 18:1 39:1 55:1 56:1 57:1 86:1 92:1 
1.4716493698615871 18:1 55:1 59:1 66:1 92:1 
0.30267650035027466 18:1 39:1 55:1 56:1 57:1 92:1 96:1 103:1 
0.19821451187350647 18:1 22:1 29:1 55:1 92:1 
0.055579790497477181 18:1 55:1 59:1 66:1 92:1 
0.80422730013056021 18:1 39:1 55:1 56:1 57:1 74:1 86:1 92:1 
0.23347870422735123 0:1 12:1 18:1 55:1 76:1 92:1 93:1 94:1 
4 18:1 39:1 55:1 56:1 57:1 86:1 92:1 
4 18:1 39:1 55:1 56:1 57:1 86:1 92:1 
4 18:1 39:1 55:1 56:1 57:1 86:1 92:1 
4 18:1 39:1 55:1 56:1 57:1 86:1 92:1 
2.0682178356889866 18:1 23:1 29:1 39:1 55:1 56:1 57:1 78:1 92:1 97:1 
0.38562941734379352 4:1 18:1 23:1 55:1 60:1 66:1 77:1 92:1 97:1 
4 3:1 18:1 23:1 41:1 55:1 60:1 
2.9461336804936402 12:1 18:1 39:1 55:1 56:1 57:1 75:1 83:1 92:1 96:1 
0.20780089447223454 1:1 9:1 18:1 22:1 49:1 55:1 83:1 92:1 103:1 
0.38240447827265911 18:1 55:1 62:1 66:1 74:1 92:1 
0.66175312223970295 0:1 12:1 15:1 16:1 18:1 52:1 53:1 55:1 62:1 65:1 74:1 86:1 89:1 90:1 92:1 
0.099749987030956985 0:1 15:1 16:1 18:1 31:1 37:1 49:1 52:1 53:1 55:1 86:1 87:1 88:1 89:1 90:1 92:1 93:1 94:1 
0.14552513388203198 12:1 13:1 14:1 15:1 16:1 18:1 19:1 20:1 37:1 52:1 53:1 55:1 68:1 86:1 87:1 88:1 89:1 90:1 92:1 93:1 94:1 
0.039921938550111669 12:1 13:1 14:1 15:1 16:1 18:1 19:1 20:1 49:1 50:1 51:1 52:1 53:1 55:1 56:1 57:1 80:1 86:1 87:1 88:1 90:1 92:1 93:1 94:1 
0.044892411003815802 6:1 12:1 13:1 14:1 16:1 18:1 19:1 20:1 49:1 50:1 51:1 52:1 53:1 55:1 56:1 57:1 81:1 89:1 90:1 92:1 97:1 
0.56927327914410963 12:1 13:1 14:1 16:1 18:1 19:1 20:1 39:1 55:1 56:1 57:1 96:1 
1.236480076288496 22:1 49:1 50:1 51:1 53:1 55:1 56:1 57:1 81:1 92:1 96:1 
1.9117767520562507 7:1 18:1 22:1 59:1 92:1 99:1 102:1 
2.9090400714931204 18:1 25:1 28:1 44:1 55:1 59:1 74:1 86:1 92:1 
4 0:1 12:1 18:1 55:1 62:1 65:1 74:1 86:1 92:1 
2.734545144194414 0:1 12:1 18:1 37:1 49:1 55:1 74:1 92:1 105:1 
0.34233024395681927 18:1 43:1 49:1 50:1 51:1 53:1 55:1 56:1 57:1 78:1 92:1 105:1 
2.1448809767808035 4:1 18:1 31:1 55:1 77:1 86:1 92:1 
4 3:1 12:1 18:1 41:1 55:1 68:1 
4 18:1 22:1 39:1 55:1 56:1 57:1 75:1 92:1 
0.34279566941009293 7:1 18:1 23:1 25:1 34:1 37:1 38:1 55:1 92:1 
1.784350918633999 18:1 22:1 39:1 55:1 56:1 57:1 75:1 86:1 90:1 92:1 
3.4209802911076364 18:1 19:1 22:1 39:1 55:1 56:1 57:1 86:1 92:1 93:1 
0.3407687861485153 1:1 15:1 16:1 18:1 19:1 22:1 49:1 52:1 53:1 55:1 56:1 74:1 81:1 89:1 90:1 92:1 97:1 
0.56866400432161601 0:1 7:1 15:1 16:1 18:1 23:1 38:1 52:1 53:1 55:1 56:1 59:1 74:1 89:1 90:1 92:1 99:1 100:1 102:1 
0.37806681472287373 0:1 15:1 16:1 18:1 25:1 26:1 28:1 37:1 44:1 52:1 53:1 55:1 60:1 86:1 89:1 90:1 92:1 93:1 
0.206238893962922 12:1 15:1 16:1 18:1 19:1 37:1 52:1 53:1 55:1 62:1 63:1 65:1 86:1 89:1 90:1 92:1 
1.4415001519992079 18:1 19:1 20:1 22:1 39:1 55:1 56:1 57:1 75:1 92:1 96:1 
0.46292480751937531 1:1 18:1 22:1 55:1 56:1 57:1 59:1 75:1 92:1 93:1 96:1 
0.53697023030511004 1:1 18:1 19:1 22:1 38:1 55:1 56:1 59:1 70:1 92:1 93:1 96:1 110:1 
0.17824940031665526 18:1 19:1 22:1 36:1 38:1 55:1 56:1 59:1 92:1 93:1 110:1 
0.29069980472056778 18:1 19:1 36:1 55:1 56:1 59:1 73:1 75:1 92:1 93:1 96:1 
0.36342570194554863 1:1 18:1 19:1 22:1 55:1 56:1 73:1 92:1 93:1 
0.23479656052865555 18:1 55:1 75:1 81:1 92:1 97:1 
0.54169464470382112 1:1 7:1 18:1 23:1 55:1 92:1 
0.04092646794605026 18:1 38:1 44:1 55:1 60:1 92:1 
4 18:1 55:1 78:1 92:1 
0.081760452604251466 4:1 18:1 55:1 77:1 92:1 
4 3:1 18:1 41:1 55:1 
0.0990508050893463 4:1 18:1 29:1 35:1 39:1 55:1 56:1 57:1 77:1 92:1 
0.05792918054180534 3:1 18:1 41:1 55:1 66:1 72:1 
0.055695148549512831 18:1 26:1 37:1 38:1 49:1 55:1 92:1 96:1 
0.7118044830954452 18:1 55:1 68:1 70:1 81:1 92:1 
0.48230513062810704 2:1 18:1 19:1 20:1 46:1 49:1 50:1 51:1 55:1 56:1 57:1 92:1 97:1 107:1 
0.10652136212338933 2:1 18:1 19:1 20:1 46:1 49:1 50:1 51:1 55:1 56:1 57:1 92:1 97:1 
0.45484570027567295 18:1 19:1 55:1 66:1 72:1 92:1 93:1 96:1 97:1 
0.539398392558461 18:1 19:1 55:1 56:1 92:1 
0.24286865756327886 18:1 55:1 56:1 92:1 93:1 97:1 
4 18:1 19:1 23:1 55:1 74:1 92:1 96:1 
1.0702146481898807 0:1 18:1 22:1 55:1 56:1 60:1 92:1 93:1 
1.1529823089246773 9:1 12:1 13:1 14:1 18:1 19:1 20:1 39:1 55:1 56:1 57:1 76:1 78:1 92:1 93:1 94:1 
0.72685859769448435 2:1 4:1 18:1 19:1 20:1 46:1 49:1 50:1 51:1 55:1 56:1 57:1 77:1 92:1 
4 3:1 18:1 39:1 41:1 55:1 56:1 57:1 
0.10839653469796941 1:1 12:1 18:1 22:1 39:1 55:1 56:1 57:1 76:1 92:1 93:1 94:1 
4 3:1 18:1 39:1 41:1 55:1 56:1 57:1 
0.45718459875033213 1:1 18:1 22:1 30:1 55:1 75:1 86:1 92:1 104:1 
0.41745981525967468 1:1 12:1 18:1 30:1 38:1 55:1 59:1 67:1 92:1 97:1 
0.17275732620635317 1:1 12:1 15:1 16:1 18:1 30:1 37:1 38:1 52:1 53:1 55:1 76:1 92:1 93:1 94:1 
0.3599172238845415 2:1 18:1 19:1 20:1 38:1 49:1 52:1 53:1 55:1 67:1 75:1 86:1 89:1 90:1 91:1 92:1 104:1 106:1 108:1 
0.28632713324059406 1:1 12:1 15:1 16:1 17:1 18:1 30:1 32:1 34:1 39:1 55:1 56:1 57:1 86:1 89:1 90:1 91:1 92:1 
0.37017587390492229 12:1 15:1 16:1 17:1 18:1 38:1 49:1 52:1 53:1 54:1 55:1 67:1 69:1 71:1 76:1 92:1 93:1 94:1 
4 12:1 18:1 55:1 92:1 
4 1:1 18:1 55:1 74:1 86:1 92:1 
1.7986769582905919 0:1 12:1 18:1 38:1 55:1 92:1 103:1 107:1 
0.75411884374372395 18:1 29:1 33:1 37:1 49:1 55:1 74:1 75:1 86:1 92:1 
0.12244045238774152 7:1 18:1 22:1 23:1 25:1 32:1 33:1 34:1 55:1 65:1 66:1 92:1 103:1 106:1 108:1 
0.22394344084949683 18:1 29:1 32:1 34:1 44:1 55:1 59:1 60:1 62:1 69:1 70:1 71:1 92:1 97:1 102:1 106:1 108:1 
0.57345175482213684 10:1 18:1 59:1 85:1 86:1 92:1 
0.43935497431678322 11:1 12:1 18:1 47:1 55:1 92:1 97:1 99:1 106:1 
0.23683638408245963 12:1 18:1 39:1 55:1 56:1 57:1 85:1 86:1 92:1 
0.079072358404322321 2:1 18:1 19:1 20:1 55:1 60:1 62:1 65:1 69:1 71:1 92:1 96:1 97:1 99:1 105:1 106:1 108:1 
0.28677513901056778 12:1 18:1 39:1 55:1 56:1 57:1 85:1 86:1 92:1 
0.27633130111642712 18:1 23:1 25:1 26:1 27:1 32:1 48:1 49:1 55:1 76:1 92:1 93:1 94:1 
0.01497946871942667 2:1 18:1 19:1 20:1 55:1 60:1 62:1 63:1 64:1 69:1 92:1 96:1 97:1 99:1 106:1 
4 12:1 18:1 39:1 55:1 56:1 57:1 92:1 
0.35979732948595133 18:1 49:1 55:1 83:1 92:1 
0.051443091378805941 18:1 39:1 55:1 56:1 57:1 76:1 78:1 83:1 92:1 93:1 94:1 
0.10198657364206473 3:1 12:1 18:1 39:1 41:1 46:1 55:1 56:1 57:1 
0.4392686061631485 7:1 18:1 23:1 31:1 44:1 55:1 81:1 92:1 
0.55767484377692711 7:1 18:1 44:1 55:1 60:1 68:1 97:1 
0.097149652277411847 18:1 49:1 55:1 76:1 92:1 93:1 94:1 
3.4541115201718791 7:1 18:1 34:1 55:1 92:1 
0.99413723783956565 18:1 44:1 55:1 71:1 92:1 
0.43223834300131331 18:1 22:1 55:1 69:1 92:1 97:1 
0.60613602697882207 18:1 23:1 55:1 59:1 92:1 
0.061184790097995954 12:1 18:1 55:1 92:1 97:1 105:1 
0.19801349098471457 18:1 25:1 55:1 64:1 92:1 97:1 
1.9361776641211248 18:1 22:1 49:1 53:1 55:1 92:1 
1.1146386109624131 12:1 13:1 16:1 18:1 19:1 55:1 81:1 92:1 96:1 97:1 105:1 
1.2833050566550013 7:1 18:1 22:1 23:1 31:1 49:1 50:1 53:1 55:1 56:1 86:1 92:1 
1.3958933008985419 18:1 29:1 55:1 59:1 70:1 92:1 103:1 
1.7428267784667291 12:1 18:1 55:1 66:1 92:1 96:1 105:1 107:1 
0.13853528249403183 18:1 22:1 31:1 33:1 49:1 55:1 92:1 106:1 
0.78538391453722733 12:1 18:1 55:1 66:1 92:1 
2.5175031595720641 18:1 49:1 55:1 92:1 97:1 105:1 
0.0098719354815189533 18:1 23:1 55:1 92:1 96:1 100:1 105:1 
4 18:1 55:1 81:1 92:1 96:1 
0.87075891838525432 7:1 18:1 22:1 55:1 92:1 103:1 
0.27441191731994868 18:1 23:1 55:1 59:1 66:1 68:1 92:1 97:1 100:1 
0.1123146275597645 18:1 55:1 59:1 66:1 92:1 
1.3514057330487428 12:1 18:1 55:1 92:1 105:1 
1.9230412919364841 18:1 31:1 49:1 55:1 92:1 97:1 
1.7301898243322609 18:1 23:1 55:1 59:1 92:1 97:1 108:1 
4 12:1 18:1 55:1 59:1 92:1 103:1 
0.14586598302962961 18:1 23:1 55:1 59:1 92:1 97:1 
0.73171577621186834 18:1 23:1 49:1 55:1 92:1 97:1 
2.0064767443529701 7:1 18:1 23:1 31:1 55:1 92:1 100:1 
0.8682887955026567 18:1 26:1 44:1 55:1 60:1 68:1 92:1 103:1 
0.21892652532165724 7:1 18:1 23:1 28:1 31:1 55:1 59:1 92:1 103:1 106:1 
0.38686938427253692 18:1 29:1 32:1 44:1 55:1 60:1 65:1 68:1 92:1 100:1 108:1 
0.91240599155119995 18:1 23:1 29:1 55:1 63:1 71:1 92:1 101:1 107:1 
0.34698229686508031 18:1 23:1 31:1 33:1 49:1 55:1 60:1 76:1 92:1 93:1 94:1 
0.01603730229104532 18:1 26:1 44:1 55:1 60:1 62:1 66:1 92:1 97:1 103:1 
1.211148915271087 7:1 18:1 23:1 55:1 60:1 92:1 105:1 
3.6713275732639659 18:1 31:1 44:1 55:1 60:1 92:1 102:1 
0.49900869995831426 18:1 28:1 55:1 68:1 92:1 96:1 102:1 
0.54735644322931698 18:1 55:1 65:1 92:1 101:1 
1.8057498922034485 18:1 23:1 55:1 59:1 92:1 102:1 106:1 
4 12:1 18:1 55:1 59:1 92:1 97:1 
3.9625951345052868 18:1 23:1 49:1 55:1 92:1 97:1 
3.2664001811723971 18:1 23:1 55:1 59:1 68:1 92:1 99:1 102:1 
4 18:1 22:1 55:1 81:1 92:1 
2.7095257221482516 7:1 18:1 55:1 59:1 92:1 96:1 97:1 
0.21347894479206975 18:1 55:1 69:1 92:1 96:1 103:1 
0.048453006082614311 18:1 23:1 55:1 81:1 92:1 
2.1001141784344983 18:1 29:1 44:1 55:1 86:1 92:1 
1.8973296095186964 12:1 18:1 55:1 66:1 92:1 97:1 
2.100523656456339 18:1 55:1 63:1 71:1 78:1 92:1 97:1 
1.0301506818018089 4:1 18:1 23:1 55:1 77:1 86:1 92:1 
0.62041518880847824 3:1 12:1 18:1 41:1 55:1 60:1 
0.57890586487969931 11:1 18:1 22:1 48:1 55:1 85:1 92:1 96:1 
0.1748537369399647 11:1 18:1 19:1 22:1 48:1 55:1 59:1 85:1 92:1 96:1 102:1 
0.24881318362612861 11:1 18:1 22:1 48:1 55:1 56:1 59:1 85:1 92:1 96:1 102:1 
0.93246947108615796 11:1 18:1 22:1 48:1 55:1 59:1 92:1 
0.093843063435671115 18:1 23:1 81:1 92:1 97:1 
1.4960763993893331 18:1 19:1 23:1 44:1 55:1 60:1 92:1 93:1 97:1 103:1 
0.12454866129390758 18:1 23:1 55:1 56:1 60:1 66:1 92:1 93:1 97:1 
0.7204989801300361 18:1 19:1 23:1 64:1 92:1 93:1 97:1 
0.55012513545415842 18:1 23:1 55:1 56:1 60:1 92:1 93:1 97:1 
0.60672009788876091 11:1 18:1 23:1 39:1 55:1 56:1 57:1 81:1 85:1 92:1 97:1 
1.4018561671101708 7:1 11:1 18:1 23:1 48:1 55:1 60:1 86:1 92:1 93:1 
0.44105836348237681 11:1 18:1 45:1 46:1 55:1 85:1 92:1 93:1 
0.31499842966530811 39:1 47:1 55:1 56:1 57:1 81:1 92:1 99:1 
0.7010904276683011 7:1 18:1 22:1 23:1 29:1 33:1 55:1 59:1 
1.3576814946388931 0:1 9:1 18:1 22:1 74:1 78:1 83:1 92:1 96:1 
2.4647697927654346 0:1 4:1 9:1 18:1 22:1 37:1 46:1 55:1 59:1 77:1 92:1 
1.3477110913760315 3:1 18:1 37:1 41:1 46:1 55:1 59:1 
0.082037371777991946 18:1 25:1 27:1 55:1 70:1 92:1 100:1 107:1 108:1 
1.0566555215664744 18:1 55:1 68:1 71:1 92:1 101:1 
0.51920661894282272 1:1 18:1 30:1 55:1 66:1 75:1 86:1 92:1 106:1 
0.040705677060507893 1:1 12:1 18:1 32:1 38:1 55:1 67:1 81:1 92:1 97:1 
0.20489875802187707 18:1 22:1 39:1 55:1 56:1 57:1 76:1 78:1 92:1 93:1 94:1 
4 4:1 18:1 38:1 55:1 77:1 92:1 
4 3:1 18:1 41:1 55:1 
2.3196551506017844 11:1 18:1 55:1 83:1 92:1 
1.1148072964159228 11:1 18:1 48:1 55:1 85:1 92:1 97:1 
0.3888544483379594 11:1 18:1 23:1 48:1 55:1 85:1 92:1 
1.4785721715268931 11:1 18:1 48:1 55:1 84:1 92:1 97:1 
4 3:1 18:1 39:1 41:1 55:1 56:1 57:1 
1.738580082173961 0:1 1:1 18:1 55:1 59:1 81:1 92:1 97:1 99:1 102:1 
0.042723430883808873 18:1 44:1 55:1 60:1 62:1 63:1 65:1 75:1 86:1 92:1 106:1 
2.9738247334181658 12:1 13:1 14:1 18:1 19:1 20:1 39:1 55:1 56:1 57:1 90:1 92:1 
2.645488247931584 16:1 18:1 49:1 50:1 51:1 55:1 56:1 57:1 92:1 96:1 
0.041712381564292376 3:1 9:1 16:1 18:1 36:1 41:1 46:1 49:1 53:1 55:1 
0.55370341124193567 18:1 28:1 44:1 68:1 92:1 
2.0086569972225656 9:1 18:1 22:1 23:1 46:1 55:1 78:1 83:1 92:1 97:1 
1.8096062204210306 4:1 9:1 18:1 23:1 46:1 55:1 59:1 60:1 77:1 83:1 92:1 
0.38500534567115979 3:1 9:1 18:1 41:1 46:1 55:1 60:1 
0.68719222384837664 1:1 18:1 30:1 38:1 55:1 92:1 102:1 108:1 
0.29276871532857973 18:1 28:1 34:1 38:1 55:1 67:1 74:1 75:1 92:1 
0.38950874021805981 12:1 18:1 55:1 75:1 92:1 96:1 104:1 
0.16144235340511928 1:1 18:1 38:1 55:1 59:1 76:1 92:1 93:1 94:1 
1.4762589973833125 1:1 12:1 18:1 39:1 55:1 56:1 57:1 75:1 92:1 96:1 
0.36520015333852007 1:1 18:1 22:1 25:1 36:1 38:1 55:1 59:1 86:1 92:1 
2.2254929250805446 12:1 18:1 38:1 55:1 59:1 62:1 73:1 92:1 
0.23433869695960449 18:1 49:1 55:1 76:1 92:1 93:1 94:1 
4 3:1 18:1 39:1 41:1 55:1 56:1 57:1 
0.18178723720667547 7:1 18:1 23:1 25:1 26:1 37:1 38:1 55:1 92:1 
4 18:1 39:1 55:1 56:1 57:1 86:1 92:1 
2.8101089691106278 18:1 60:1 78:1 86:1 92:1 
0.49671946696190938 4:1 12:1 18:1 55:1 77:1 79:1 80:1 86:1 87:1 88:1 90:1 92:1 93:1 94:1 
4 18:1 49:1 55:1 92:1 
0.3587376213973783 18:1 49:1 55:1 86:1 92:1 
4 12:1 18:1 55:1 92:1 
3.1902329285534603 12:1 18:1 55:1 92:1 
0.31534588085279214 18:1 29:1 49:1 55:1 92:1 103:1 
3.9763250072156531 18:1 29:1 49:1 55:1 86:1 92:1 
0.62122931143058224 12:1 18:1 55:1 66:1 92:1 
0.79769193416598339 18:1 49:1 55:1 86:1 87:1 88:1 89:1 90:1 92:1 93:1 94:1 
4 18:1 49:1 55:1 92:1 
4 0:1 18:1 55:1 74:1 92:1 
4 18:1 39:1 55:1 56:1 57:1 86:1 92:1 
0.092730074748551022 18:1 49:1 55:1 86:1 92:1 
0.097313285908833022 18:1 49:1 55:1 86:1 92:1 
2.2042973216175392 12:1 18:1 55:1 92:1 
0.20353305177755232 18:1 49:1 55:1 86:1 92:1 
2.8453556230469976 12:1 18:1 55:1 86:1 92:1 
4 12:1 18:1 49:1 55:1 92:1 
0.22430512101913175 18:1 49:1 55:1 86:1 92:1 
4 12:1 18:1 55:1 86:1 92:1 
4 12:1 18:1 49:1 55:1 92:1 
4 12:1 18:1 55:1 86:1 92:1 
4 12:1 18:1 49:1 55:1 92:1 
0.29896194826009082 18:1 23:1 29:1 38:1 55:1 92:1 103:1 
0.20413341609367094 18:1 49:1 55:1 76:1 92:1 93:1 94:1 
3.5954373849374606 18:1 49:1 55:1 92:1 
2.1553398015526826 12:1 18:1 55:1 92:1 
3.1820933571947649 18:1 49:1 55:1 92:1 
1.9391093928959233 18:1 49:1 55:1 86:1 92:1 
4 12:1 18:1 55:1 86:1 92:1 
4 12:1 18:1 49:1 55:1 92:1 
2.8945754657332925 18:1 49:1 55:1 92:1 
4 18:1 55:1 78:1 92:1 
4 3:1 18:1 41:1 55:1 
4 18:1 55:1 78:1 92:1 
0.68877802412232514 12:1 18:1 55:1 75:1 92:1 99:1 104:1 
0.98447727913819938 1:1 18:1 25:1 30:1 49:1 55:1 92:1 97:1 
0.53852686519385196 0:1 1:1 18:1 55:1 63:1 75:1 92:1 104:1 105:1 
0.39233873855761969 18:1 23:1 39:1 55:1 56:1 57:1 82:1 92:1 105:1 
0.27775904564649162 0:1 1:1 18:1 55:1 74:1 92:1 99:1 102:1 
0.46598063497834441 0:1 18:1 25:1 28:1 37:1 38:1 55:1 92:1 
2.1935515128725718 18:1 38:1 55:1 67:1 92:1 96:1 
2.3340196203277657 18:1 22:1 55:1 92:1 97:1 100:1 108:1 
1.1301278225005793 18:1 23:1 26:1 34:1 55:1 59:1 92:1 99:1 102:1 
0.55137080459337706 7:1 18:1 23:1 34:1 55:1 60:1 92:1 
0.048874987735035194 18:1 25:1 28:1 32:1 34:1 42:1 43:1 49:1 50:1 51:1 53:1 55:1 56:1 57:1 76:1 92:1 93:1 94:1 
0.027552653423819309 18:1 23:1 25:1 28:1 29:1 32:1 34:1 39:1 55:1 56:1 57:1 92:1 99:1 102:1 106:1 108:1 
0.24035632984364499 18:1 25:1 28:1 32:1 34:1 55:1 60:1 62:1 65:1 66:1 69:1 71:1 76:1 92:1 93:1 94:1 
0.036243027202551584 18:1 55:1 60:1 74:1 92:1 97:1 
0.0063596899539485044 16:1 18:1 23:1 25:1 28:1 32:1 53:1 55:1 59:1 60:1 62:1 69:1 90:1 92:1 99:1 102:1 106:1 
0.1152773294456681 16:1 18:1 23:1 25:1 28:1 32:1 42:1 43:1 49:1 50:1 51:1 53:1 55:1 56:1 57:1 90:1 92:1 97:1 102:1 106:1 
0.069496416134926339 18:1 39:1 55:1 56:1 57:1 92:1 100:1 102:1 
0.61099421751848004 2:1 4:1 18:1 19:1 20:1 49:1 55:1 77:1 92:1 96:1 
0.69750428130302922 18:1 23:1 55:1 59:1 92:1 97:1 105:1 
0.3667988804745545 4:1 18:1 23:1 39:1 55:1 56:1 57:1 77:1 86:1 92:1 
1.2213478917905316 3:1 12:1 18:1 41:1 55:1 60:1 
0.034831782853153935 4:1 6:1 12:1 13:1 14:1 16:1 18:1 19:1 20:1 39:1 55:1 56:1 57:1 77:1 92:1 97:1 105:1 
0.00983042327077965 3:1 18:1 23:1 31:1 41:1 43:1 49:1 50:1 51:1 53:1 55:1 56:1 57:1 
0.25317343305588513 1:1 18:1 22:1 38:1 55:1 81:1 92:1 96:1 97:1 
1.9559138495443935 18:1 19:1 22:1 39:1 55:1 56:1 57:1 92:1 93:1 103:1 
0.22593500006194442 18:1 29:1 53:1 55:1 59:1 68:1 70:1 86:1 92:1 93:1 
0.14049892113306575 7:1 18:1 23:1 26:1 28:1 29:1 33:1 34:1 53:1 55:1 60:1 66:1 90:1 92:1 105:1 
0.029629632430444326 18:1 23:1 31:1 53:1 55:1 68:1 81:1 92:1 97:1 102:1 105:1 
0.18728149906895059 7:1 18:1 23:1 28:1 31:1 55:1 60:1 68:1 81:1 92:1 97:1 100:1 105:1 
0.13934846188610683 16:1 18:1 22:1 23:1 31:1 44:1 55:1 60:1 66:1 68:1 71:1 92:1 97:1 99:1 103:1 106:1 107:1 
0.14756249023686008 18:1 23:1 53:1 55:1 59:1 60:1 68:1 81:1 92:1 97:1 
0.04955677227117538 7:1 18:1 23:1 55:1 60:1 81:1 92:1 97:1 
0.045458176199226888 7:1 18:1 23:1 44:1 55:1 60:1 92:1 
0.0078718869253740463 18:1 23:1 53:1 55:1 59:1 60:1 68:1 81:1 92:1 97:1 
0.0077691933499352628 7:1 18:1 23:1 55:1 60:1 81:1 92:1 97:1 
0.06053950994998869 7:1 18:1 23:1 44:1 55:1 60:1 92:1 
1.2062304327110955 18:1 22:1 23:1 53:1 55:1 59:1 69:1 81:1 92:1 97:1 
4 7:1 18:1 23:1 55:1 59:1 60:1 92:1 
0.36302635652081722 0:1 18:1 22:1 23:1 53:1 55:1 65:1 68:1 75:1 92:1 
0.87470838413845864 1:1 18:1 37:1 55:1 59:1 60:1 76:1 92:1 93:1 94:1 
0.054634047161932056 7:1 18:1 23:1 28:1 33:1 53:1 55:1 60:1 66:1 82:1 90:1 92:1 96:1 
0.083298403375583308 12:1 18:1 55:1 59:1 76:1 92:1 93:1 94:1 
0.070911255340370141 18:1 22:1 39:1 55:1 56:1 57:1 92:1 
0.029352192733491895 2:1 18:1 19:1 20:1 49:1 55:1 59:1 73:1 92:1 96:1 97:1 99:1 102:1 103:1 105:1 
0.28242491231721129 2:1 4:1 18:1 19:1 20:1 55:1 60:1 62:1 66:1 77:1 92:1 97:1 99:1 107:1 108:1 
0.85127750154489046 3:1 18:1 23:1 25:1 33:1 34:1 39:1 41:1 55:1 56:1 57:1 
0.49346628290180289 18:1 44:1 55:1 92:1 
0.38455900940166798 18:1 31:1 55:1 59:1 92:1 
1.2988862147632694 18:1 55:1 68:1 82:1 92:1 
0.42375131534798177 18:1 22:1 36:1 37:1 38:1 55:1 81:1 92:1 
0.40961492661418852 7:1 18:1 55:1 59:1 73:1 74:1 75:1 92:1 
0.13634382770888348 16:1 17:1 18:1 22:1 25:1 27:1 37:1 38:1 53:1 55:1 59:1 67:1 90:1 91:1 92:1 96:1 105:1 
0.05190017613087447 15:1 16:1 17:1 18:1 32:1 52:1 53:1 54:1 55:1 62:1 65:1 72:1 89:1 90:1 91:1 92:1 106:1 
4 18:1 55:1 78:1 92:1 
4 4:1 18:1 55:1 77:1 92:1 96:1 
4 3:1 18:1 22:1 41:1 55:1 
0.59452740238402779 18:1 19:1 29:1 55:1 56:1 62:1 66:1 92:1 93:1 97:1 103:1 
1.0529441147517411 18:1 19:1 23:1 29:1 55:1 56:1 66:1 92:1 93:1 99:1 103:1 
0.83480099712696421 18:1 19:1 25:1 29:1 55:1 56:1 60:1 66:1 92:1 93:1 99:1 103:1 
0.40039380011012338 18:1 19:1 25:1 29:1 55:1 56:1 62:1 66:1 92:1 93:1 99:1 102:1 103:1 
0.23666285879050172 18:1 19:1 25:1 29:1 39:1 55:1 56:1 57:1 92:1 93:1 99:1 103:1 
0.44490591466986623 18:1 19:1 25:1 29:1 55:1 56:1 62:1 66:1 92:1 97:1 103:1 
1.0111304730288579 18:1 19:1 23:1 29:1 55:1 60:1 66:1 92:1 93:1 99:1 103:1 
0.095531424814875546 12:1 13:1 14:1 16:1 18:1 19:1 20:1 39:1 55:1 56:1 57:1 92:1 105:1 
4 18:1 19:1 55:1 59:1 86:1 92:1 
1.4074490110498017 18:1 19:1 55:1 86:1 92:1 
0.015482248139598502 18:1 19:1 32:1 49:1 55:1 80:1 86:1 87:1 88:1 90:1 92:1 93:1 94:1 
4 18:1 55:1 59:1 74:1 92:1 
4 3:1 18:1 39:1 41:1 55:1 56:1 57:1 
0.72000520290399439 3:1 18:1 22:1 39:1 41:1 55:1 56:1 57:1 
0.0087017324057935067 2:1 18:1 19:1 20:1 49:1 53:1 55:1 56:1 59:1 76:1 78:1 92:1 93:1 94:1 
3.5956578849412373 0:1 18:1 22:1 55:1 59:1 60:1 74:1 92:1 
1.6788424653187273 0:1 18:1 37:1 55:1 59:1 92:1 107:1 
0.048268207391137817 2:1 4:1 18:1 19:1 20:1 44:1 55:1 68:1 77:1 92:1 
4 3:1 18:1 39:1 41:1 55:1 56:1 57:1 
0.36624019904465416 3:1 18:1 25:1 34:1 
0.27863957338265904 18:1 43:1 49:1 50:1 51:1 53:1 55:1 56:1 57:1 78:1 92:1 97:1 
1.8662415966674519 4:1 18:1 23:1 55:1 77:1 92:1 
3.4240023251389795 3:1 18:1 41:1 55:1 60:1 
3.6150092444988062 18:1 38:1 55:1 92:1 96:1 
0.57661726739141894 18:1 22:1 55:1 81:1 97:1 
0.66545559509120211 7:1 23:1 55:1 59:1 74:1 75:1 92:1 
0.8898735846847925 1:1 18:1 22:1 30:1 49:1 55:1 92:1 
0.98546623091378827 1:1 18:1 38:1 55:1 59:1 81:1 92:1 97:1 99:1 102:1 
4 18:1 39:1 55:1 56:1 57:1 86:1 92:1 
0.5822498599323761 2:1 18:1 19:1 20:1 49:1 55:1 75:1 92:1 93:1 96:1 
0.55168979364544835 18:1 38:1 55:1 68:1 92:1 96:1 
1.2643663909746445 1:1 18:1 55:1 59:1 92:1 
0.41277570587590107 0:1 1:1 18:1 44:1 55:1 60:1 63:1 65:1 71:1 92:1 103:1 109:1 
0.078034477542772998 2:1 4:1 18:1 19:1 20:1 39:1 55:1 56:1 57:1 75:1 77:1 86:1 92:1 
1.2736976705429284 4:1 18:1 26:1 39:1 55:1 56:1 57:1 77:1 92:1 
4 3:1 18:1 41:1 55:1 63:1 
2.4201260369257058 18:1 29:1 38:1 55:1 59:1 92:1 
0.55191117899774211 6:1 12:1 13:1 14:1 16:1 18:1 19:1 20:1 38:1 49:1 53:1 55:1 59:1 78:1 92:1 
0.28089709864768103 4:1 18:1 43:1 49:1 50:1 51:1 53:1 55:1 56:1 57:1 77:1 92:1 105:1 
4 3:1 18:1 31:1 41:1 55:1 
4 3:1 18:1 39:1 41:1 55:1 56:1 57:1 
0.2772296492590412 1:1 12:1 18:1 55:1 59:1 60:1 63:1 92:1 103:1 
3.6558967360445762 3:1 18:1 22:1 39:1 41:1 55:1 56:1 57:1 
4 18:1 55:1 78:1 92:1 
4 18:1 39:1 55:1 56:1 57:1 75:1 78:1 92:1 
4 1:1 4:1 18:1 55:1 74:1 77:1 92:1 
4 0:1 3:1 18:1 38:1 41:1 55:1 
0.021856316563350971 18:1 23:1 25:1 28:1 32:1 34:1 55:1 60:1 62:1 65:1 69:1 71:1 76:1 92:1 93:1 94:1 
0.77833376432101531 18:1 55:1 60:1 74:1 92:1 97:1 
0.04065290934489911 18:1 39:1 55:1 56:1 57:1 92:1 100:1 102:1 
4 12:1 18:1 55:1 92:1 
4 18:1 49:1 55:1 86:1 92:1 
0.23278842584340251 18:1 39:1 55:1 56:1 57:1 78:1 92:1 110:1 
0.17605293502001088 3:1 12:1 18:1 41:1 55:1 73:1 
0.41523974515915746 10:1 18:1 19:1 32:1 39:1 55:1 56:1 57:1 92:1 
0.3786348315911956 18:1 47:1 55:1 56:1 69:1 92:1 
0.014422367874292573 12:1 13:1 15:1 16:1 18:1 19:1 20:1 49:1 50:1 52:1 53:1 55:1 56:1 57:1 78:1 86:1 87:1 88:1 89:1 90:1 92:1 93:1 94:1 
0.014361318740067885 4:1 12:1 13:1 14:1 15:1 16:1 18:1 19:1 20:1 49:1 50:1 52:1 53:1 55:1 56:1 57:1 77:1 86:1 87:1 88:1 89:1 90:1 92:1 93:1 94:1 
0.59700296817041576 7:1 18:1 23:1 25:1 26:1 38:1 49:1 55:1 92:1 
0.20729201816091034 18:1 38:1 55:1 60:1 67:1 81:1 92:1 97:1 99:1 102:1 
0.18290642709113369 18:1 22:1 36:1 38:1 55:1 81:1 92:1 97:1 100:1 
1.0515887012597234 7:1 18:1 23:1 26:1 55:1 59:1 73:1 92:1 
0.035574061911032968 9:1 12:1 13:1 16:1 17:1 18:1 19:1 47:1 49:1 53:1 54:1 55:1 85:1 86:1 90:1 91:1 92:1 93:1 
0.12193501396945977 11:1 12:1 16:1 17:1 18:1 19:1 46:1 49:1 50:1 53:1 54:1 55:1 56:1 85:1 86:1 90:1 91:1 92:1 93:1 
0.31810482251626748 11:1 12:1 16:1 17:1 18:1 19:1 48:1 49:1 53:1 54:1 55:1 56:1 83:1 86:1 87:1 90:1 91:1 92:1 93:1 
0.14272178285973317 9:1 12:1 13:1 16:1 17:1 18:1 19:1 48:1 49:1 53:1 54:1 55:1 56:1 85:1 86:1 90:1 91:1 92:1 93:1 
0.061178864739193276 11:1 12:1 16:1 17:1 18:1 19:1 46:1 49:1 50:1 53:1 54:1 55:1 56:1 85:1 90:1 91:1 92:1 93:1 
4 12:1 18:1 55:1 86:1 92:1 
1.6883502925757279 12:1 18:1 49:1 55:1 76:1 92:1 93:1 94:1 
0.0405468073316557 12:1 16:1 17:1 18:1 53:1 54:1 55:1 59:1 81:1 90:1 91:1 92:1 102:1 108:1 
0.42876500969701825 16:1 17:1 18:1 28:1 44:1 53:1 54:1 55:1 65:1 71:1 86:1 90:1 91:1 92:1 100:1 
0.42195641786558075 12:1 16:1 17:1 18:1 26:1 53:1 54:1 55:1 65:1 74:1 86:1 90:1 91:1 92:1 103:1 
0.40530077637557255 0:1 12:1 16:1 17:1 18:1 29:1 49:1 53:1 54:1 55:1 63:1 74:1 86:1 90:1 91:1 92:1 
0.47780659295716577 0:1 12:1 16:1 17:1 18:1 37:1 49:1 53:1 54:1 55:1 66:1 75:1 86:1 90:1 91:1 92:1 
0.1354032129133812 1:1 12:1 16:1 17:1 18:1 37:1 49:1 53:1 54:1 55:1 90:1 91:1 92:1 93:1 94:1 
1.407656206410729 4:1 18:1 25:1 39:1 55:1 56:1 57:1 74:1 75:1 77:1 92:1 96:1 
4 0:1 1:1 3:1 18:1 22:1 41:1 55:1 62:1 
4 3:1 18:1 22:1 39:1 41:1 55:1 56:1 57:1 
0.028240027799596605 10:1 16:1 18:1 22:1 32:1 78:1 84:1 92:1 
0.61237414992133499 4:1 10:1 18:1 47:1 53:1 55:1 59:1 69:1 77:1 83:1 92:1 100:1 
1.8847216069627772 3:1 9:1 18:1 26:1 41:1 47:1 55:1 
0.92747174913824237 18:1 55:1 66:1 86:1 87:1 88:1 92:1 93:1 94:1 
1.0269543894543249 18:1 25:1 33:1 34:1 55:1 60:1 92:1 
0.29809632665525132 18:1 33:1 35:1 55:1 60:1 92:1 97:1 102:1 
0.96081852218652886 18:1 22:1 55:1 86:1 87:1 92:1 93:1 
4 3:1 18:1 41:1 55:1 
2.816570183166061 7:1 18:1 23:1 38:1 55:1 92:1 103:1 
0.48550592710679802 18:1 29:1 44:1 55:1 60:1 75:1 92:1 104:1 
0.4383433142272935 18:1 38:1 55:1 67:1 76:1 92:1 93:1 94:1 
1.7915313268675992 18:1 34:1 55:1 82:1 92:1 
4 12:1 18:1 19:1 55:1 86:1 92:1 
4 12:1 18:1 49:1 55:1 56:1 75:1 92:1 106:1 
1.0880514174038791 1:1 18:1 32:1 38:1 55:1 69:1 86:1 92:1 93:1 
1.3252122621065636 12:1 18:1 19:1 38:1 55:1 69:1 75:1 86:1 92:1 106:1 
2.0422013629653328 1:1 12:1 18:1 32:1 49:1 55:1 56:1 92:1 93:1 106:1 
0.22131200468818321 18:1 19:1 32:1 38:1 49:1 55:1 69:1 92:1 
0.42417415963465216 18:1 38:1 55:1 59:1 67:1 74:1 92:1 
0.6894971194326891 18:1 19:1 29:1 55:1 59:1 62:1 66:1 92:1 103:1 
0.8289708811237182 18:1 29:1 55:1 56:1 66:1 75:1 92:1 99:1 100:1 102:1 
0.41279127463844728 2:1 18:1 19:1 20:1 45:1 49:1 55:1 59:1 68:1 86:1 87:1 92:1 93:1 
4 3:1 18:1 22:1 39:1 41:1 55:1 56:1 57:1 
4 1:1 12:1 18:1 55:1 92:1 96:1 
4 18:1 22:1 38:1 49:1 55:1 92:1 
0.34744145819186956 0:1 1:1 18:1 44:1 55:1 60:1 62:1 65:1 74:1 75:1 83:1 92:1 
4 7:1 18:1 55:1 92:1 102:1 
0.6103720185657312 18:1 28:1 44:1 55:1 74:1 92:1 105:1 
4 7:1 18:1 55:1 92:1 102:1 
2.8158041413926682 18:1 28:1 44:1 55:1 74:1 92:1 
0.35946944096207778 18:1 22:1 55:1 66:1 92:1 96:1 
0.078742200864307929 12:1 13:1 15:1 16:1 18:1 19:1 20:1 52:1 53:1 55:1 60:1 71:1 89:1 90:1 92:1 96:1 108:1 
0.66955032957741289 3:1 12:1 18:1 41:1 52:1 53:1 55:1 
0.37714928270695441 7:1 18:1 23:1 37:1 38:1 55:1 92:1 107:1 
1.811744527166026 18:1 49:1 50:1 53:1 55:1 56:1 76:1 92:1 93:1 94:1 
4 3:1 12:1 18:1 39:1 41:1 55:1 56:1 57:1 
3.6085501974336989 18:1 23:1 55:1 78:1 92:1 
4 3:1 12:1 18:1 41:1 55:1 
1.2712393165734679 1:1 16:1 18:1 49:1 53:1 55:1 56:1 86:1 92:1 93:1 
4 0:1 12:1 18:1 55:1 74:1 86:1 92:1 
2.2848491259571593 0:1 12:1 18:1 37:1 49:1 55:1 74:1 86:1 92:1 
4 0:1 12:1 18:1 37:1 49:1 55:1 74:1 86:1 92:1 
3.5107454821562949 0:1 12:1 18:1 37:1 49:1 55:1 76:1 92:1 93:1 94:1 
0.28794671567344354 18:1 22:1 23:1 39:1 55:1 56:1 57:1 74:1 83:1 86:1 92:1 
0.0059594827814815716 0:1 9:1 12:1 18:1 55:1 59:1 60:1 76:1 92:1 93:1 94:1 
4 0:1 12:1 18:1 55:1 74:1 86:1 92:1 
4 0:1 12:1 18:1 37:1 49:1 55:1 74:1 86:1 92:1 
4 0:1 12:1 18:1 37:1 49:1 55:1 74:1 86:1 92:1 
4 0:1 12:1 18:1 37:1 49:1 55:1 76:1 92:1 93:1 94:1 
2.7171701070012477 18:1 39:1 55:1 56:1 57:1 74:1 86:1 92:1 
4 0:1 12:1 18:1 55:1 74:1 86:1 92:1 
4 0:1 12:1 18:1 37:1 49:1 55:1 74:1 86:1 92:1 
4 0:1 12:1 18:1 37:1 49:1 55:1 74:1 86:1 92:1 
3.5104704388482104 0:1 12:1 18:1 37:1 49:1 55:1 76:1 92:1 93:1 94:1 
0.11662000332003904 2:1 18:1 19:1 20:1 55:1 60:1 64:1 70:1 71:1 92:1 99:1 103:1 108:1 
0.12619395471396019 9:1 12:1 18:1 39:1 55:1 56:1 57:1 86:1 87:1 92:1 93:1 94:1 
0.25954537813172135 11:1 12:1 18:1 48:1 55:1 85:1 86:1 92:1 
1.2173789379881701 11:1 12:1 18:1 48:1 49:1 55:1 85:1 86:1 92:1 
0.27371346160446997 11:1 12:1 18:1 48:1 49:1 55:1 76:1 92:1 93:1 94:1 
2.9395114812169822 1:1 3:1 18:1 41:1 53:1 55:1 66:1 
0.44230484666006503 7:1 18:1 23:1 25:1 39:1 55:1 56:1 57:1 92:1 102:1 107:1 
1.4446651578002454 18:1 28:1 33:1 44:1 55:1 60:1 62:1 92:1 102:1 
4 3:1 18:1 41:1 55:1 
0.17356258207798225 1:1 18:1 22:1 30:1 55:1 92:1 99:1 100:1 108:1 
0.33484424358924386 18:1 25:1 26:1 34:1 38:1 55:1 59:1 67:1 74:1 75:1 92:1 
0.98518366045356098 0:1 1:1 18:1 55:1 62:1 63:1 71:1 75:1 92:1 97:1 104:1 
3.9001355989312505 9:1 12:1 18:1 19:1 39:1 55:1 56:1 57:1 86:1 92:1 93:1 
4 3:1 12:1 18:1 39:1 41:1 55:1 56:1 57:1 
0.42299849180723764 3:1 18:1 22:1 23:1 29:1 
0.62167875083451263 18:1 22:1 23:1 28:1 39:1 55:1 56:1 57:1 76:1 78:1 92:1 93:1 94:1 
0.1728573675902863 2:1 4:1 18:1 19:1 20:1 55:1 59:1 60:1 65:1 77:1 86:1 92:1 
0.071396882388225044 1:1 18:1 55:1 82:1 92:1 97:1 102:1 
0.20997527086667436 8:1 18:1 23:1 28:1 38:1 55:1 92:1 100:1 
0.43826763748620295 7:1 18:1 31:1 55:1 60:1 92:1 
2.5660014598263907 3:1 7:1 18:1 39:1 41:1 55:1 56:1 57:1 
0.052516594283445357 18:1 53:1 55:1 59:1 82:1 86:1 92:1 
4 18:1 25:1 29:1 55:1 92:1 102:1 
0.32453559388170655 18:1 28:1 55:1 62:1 66:1 92:1 99:1 103:1 
2.0315651840809301 18:1 22:1 55:1 59:1 86:1 92:1 
0.21221168982215 12:1 18:1 55:1 59:1 76:1 92:1 93:1 94:1 
4 3:1 18:1 39:1 41:1 55:1 56:1 57:1 
0.42266928490649719 0:1 1:1 18:1 55:1 60:1 70:1 75:1 92:1 97:1 104:1 
0.64938995663461951 18:1 38:1 55:1 60:1 67:1 81:1 92:1 97:1 100:1 
0.34262967976146536 12:1 18:1 19:1 39:1 55:1 56:1 57:1 76:1 92:1 93:1 94:1 
0.77516183906199621 12:1 18:1 19:1 39:1 55:1 56:1 57:1 76:1 92:1 93:1 94:1 
4 12:1 18:1 19:1 39:1 55:1 56:1 57:1 86:1 92:1 93:1 
1.3103760294109423 12:1 18:1 19:1 49:1 55:1 56:1 76:1 92:1 93:1 94:1 
0.74550967334378426 18:1 19:1 20:1 39:1 55:1 56:1 57:1 86:1 92:1 93:1 
3.2437308455291727 12:1 18:1 19:1 55:1 56:1 57:1 92:1 93:1 94:1 
4 12:1 18:1 19:1 55:1 56:1 57:1 92:1 93:1 94:1 
1.640153797096038 22:1 55:1 78:1 86:1 87:1 92:1 93:1 
0.25688972725144837 2:1 18:1 19:1 20:1 49:1 53:1 55:1 78:1 86:1 92:1 93:1 
1.2495407896007829 3:1 18:1 41:1 55:1 66:1 72:1 
4 4:1 18:1 23:1 39:1 55:1 56:1 57:1 77:1 86:1 92:1 
4 3:1 12:1 18:1 41:1 55:1 60:1 
4 18:1 55:1 78:1 92:1 
4 3:1 18:1 41:1 55:1 
4 18:1 55:1 92:1 93:1 96:1 
1.6626950360468626 18:1 25:1 55:1 82:1 92:1 
0.22249121791108795 18:1 22:1 39:1 55:1 56:1 57:1 92:1 96:1 99:1 
4 12:1 18:1 39:1 55:1 56:1 57:1 86:1 92:1 
4 12:1 18:1 49:1 55:1 92:1 
4 18:1 49:1 55:1 92:1 
4 12:1 18:1 19:1 55:1 78:1 92:1 
4 4:1 18:1 49:1 55:1 56:1 77:1 92:1 100:1 
4 3:1 18:1 26:1 41:1 55:1 
0.24344440434388009 18:1 23:1 44:1 55:1 81:1 92:1 
2.7124792363748891 18:1 23:1 44:1 55:1 81:1 92:1 
2.4597384587573838 7:1 18:1 55:1 60:1 81:1 92:1 
4 7:1 18:1 44:1 55:1 92:1 
1.6250191711231525 18:1 44:1 55:1 92:1 97:1 
0.69622855262030514 18:1 22:1 55:1 59:1 66:1 92:1 97:1 
3.2523767672605897 18:1 23:1 49:1 55:1 92:1 
0.012210823022745657 18:1 22:1 25:1 55:1 70:1 92:1 97:1 105:1 108:1 
0.13077520232841489 18:1 23:1 31:1 34:1 55:1 59:1 62:1 92:1 96:1 97:1 105:1 
0.03317810837690463 18:1 22:1 55:1 60:1 81:1 92:1 
0.63896663318077296 18:1 22:1 29:1 55:1 66:1 69:1 92:1 96:1 
0.72138940867907808 18:1 22:1 23:1 55:1 60:1 65:1 69:1 72:1 78:1 92:1 97:1 
1.6498375968755454 4:1 18:1 23:1 55:1 59:1 60:1 77:1 92:1 96:1 97:1 
4 3:1 18:1 22:1 23:1 41:1 55:1 60:1 
0.28648204915343151 1:1 18:1 55:1 59:1 92:1 107:1 
2.2393862070620454 18:1 22:1 55:1 75:1 92:1 
1.6449935224833043 1:1 18:1 55:1 59:1 92:1 
4 18:1 55:1 86:1 87:1 88:1 92:1 93:1 94:1 
0.16992829768819129 1:1 18:1 38:1 49:1 55:1 59:1 92:1 103:1 
0.072406591241785528 4:1 12:1 13:1 14:1 15:1 16:1 18:1 19:1 20:1 49:1 50:1 51:1 52:1 53:1 55:1 56:1 57:1 77:1 86:1 87:1 88:1 89:1 90:1 92:1 93:1 94:1 
3.1360066221643939 1:1 18:1 55:1 59:1 74:1 81:1 92:1 97:1 
0.41946739746169348 18:1 55:1 92:1 100:1 108:1 
1.6929420570383713 18:1 34:1 92:1 93:1 94:1 102:1 
1.9989917726086157 2:1 18:1 19:1 20:1 55:1 59:1 74:1 78:1 86:1 92:1 
2.3800253572912324 0:1 4:1 12:1 18:1 39:1 55:1 56:1 57:1 75:1 77:1 92:1 104:1 
4 1:1 3:1 18:1 30:1 37:1 41:1 49:1 55:1 
0.47983543774595716 18:1 23:1 29:1 55:1 60:1 62:1 65:1 71:1 92:1 99:1 102:1 
1.4365685727181297 18:1 25:1 28:1 55:1 60:1 66:1 81:1 92:1 97:1 
0.44913829017676948 18:1 23:1 44:1 55:1 60:1 76:1 78:1 92:1 93:1 94:1 
0.32513512657908789 3:1 18:1 34:1 39:1 41:1 55:1 56:1 57:1 
0.18906023086494417 7:1 18:1 29:1 31:1 55:1 66:1 92:1 105:1 107:1 
0.32329933154087109 18:1 31:1 33:1 44:1 55:1 66:1 68:1 92:1 
0.25422204265170117 0:1 18:1 25:1 29:1 32:1 36:1 39:1 55:1 56:1 57:1 76:1 78:1 92:1 93:1 94:1 
0.6000104039522548 2:1 4:1 18:1 19:1 20:1 37:1 55:1 62:1 66:1 69:1 73:1 77:1 92:1 96:1 105:1 
0.28444433748535081 3:1 18:1 23:1 25:1 28:1 34:1 35:1 
2.7439311007601517 18:1 55:1 66:1 92:1 96:1 
4 3:1 12:1 18:1 39:1 41:1 55:1 56:1 57:1 
4 3:1 18:1 41:1 55:1 60:1 68:1 
0.18669568195211811 18:1 23:1 25:1 34:1 55:1 74:1 75:1 92:1 
0.24820721831785361 0:1 1:1 18:1 55:1 60:1 62:1 71:1 75:1 83:1 92:1 
0.35196761742288141 18:1 23:1 49:1 50:1 53:1 55:1 56:1 92:1 107:1 
4 18:1 31:1 55:1 59:1 74:1 86:1 92:1 
4 0:1 12:1 18:1 55:1 68:1 92:1 
1.5615379276273624 18:1 37:1 49:1 55:1 76:1 92:1 93:1 94:1 
4 18:1 55:1 78:1 92:1 
4 3:1 18:1 41:1 55:1 
0.39398076472446653 12:1 13:1 14:1 16:1 18:1 19:1 20:1 92:1 93:1 94:1 
1.2622505817377121 18:1 55:1 56:1 57:1 75:1 92:1 93:1 
1.114585127216936 1:1 18:1 19:1 55:1 92:1 93:1 94:1 
0.45528823236419391 18:1 19:1 20:1 49:1 53:1 55:1 92:1 93:1 94:1 
0.30084054487803841 4:1 18:1 19:1 20:1 55:1 56:1 57:1 77:1 92:1 93:1 94:1 
0.28776742830790741 3:1 18:1 19:1 20:1 41:1 55:1 56:1 57:1 
0.17889896616729994 18:1 23:1 92:1 96:1 103:1 105:1 
1.4785945091658772 18:1 23:1 55:1 81:1 92:1 97:1 
0.98585249362799554 7:1 18:1 23:1 55:1 60:1 92:1 
1.8257885751085412 18:1 44:1 55:1 60:1 92:1 97:1 
0.18596447564825438 18:1 55:1 69:1 92:1 96:1 
0.31026360564937899 18:1 55:1 59:1 60:1 65:1 71:1 92:1 100:1 108:1 
1.6083844076493092 18:1 55:1 69:1 92:1 96:1 
0.33849887440294685 18:1 37:1 55:1 78:1 
0.33146236223206782 2:1 18:1 19:1 20:1 38:1 55:1 66:1 67:1 70:1 75:1 86:1 89:1 90:1 91:1 92:1 96:1 103:1 104:1 107:1 
0.16244048224024801 0:1 1:1 16:1 18:1 22:1 30:1 39:1 55:1 56:1 57:1 75:1 86:1 89:1 90:1 92:1 
0.18908231227040839 2:1 18:1 19:1 20:1 55:1 60:1 66:1 81:1 82:1 90:1 92:1 96:1 97:1 99:1 102:1 103:1 105:1 
0.37539889315172537 2:1 18:1 19:1 20:1 44:1 45:1 53:1 55:1 59:1 60:1 62:1 65:1 66:1 68:1 82:1 90:1 92:1 96:1 97:1 105:1 
0.18057601676864943 2:1 18:1 19:1 20:1 45:1 53:1 55:1 59:1 60:1 68:1 92:1 97:1 102:1 103:1 105:1 106:1 107:1 108:1 
0.21685395880342187 2:1 18:1 19:1 20:1 55:1 60:1 65:1 66:1 68:1 69:1 70:1 71:1 81:1 90:1 92:1 96:1 97:1 105:1 
0.26236032399256864 1:1 18:1 29:1 30:1 55:1 75:1 92:1 
0.89631373949688264 18:1 44:1 55:1 60:1 75:1 92:1 104:1 105:1 
0.59372895491339439 18:1 28:1 34:1 38:1 55:1 92:1 
0.2450112824390944 2:1 18:1 19:1 20:1 45:1 49:1 55:1 81:1 92:1 96:1 
4 4:1 18:1 38:1 55:1 77:1 92:1 
4 3:1 18:1 41:1 55:1 
0.37051661880014392 7:1 18:1 23:1 26:1 28:1 29:1 31:1 34:1 39:1 55:1 56:1 57:1 92:1 97:1 100:1 103:1 105:1 108:1 
0.37419953377006904 18:1 23:1 26:1 29:1 31:1 34:1 44:1 55:1 60:1 63:1 65:1 66:1 68:1 71:1 92:1 97:1 103:1 106:1 
0.29181020469565572 18:1 26:1 29:1 55:1 60:1 81:1 92:1 97:1 99:1 103:1 106:1 
0.03044750531839369 2:1 18:1 19:1 20:1 55:1 68:1 81:1 92:1 97:1 99:1 103:1 
0.19772574228003886 7:1 18:1 23:1 28:1 33:1 39:1 55:1 56:1 57:1 92:1 97:1 100:1 105:1 108:1 
0.061508426227128044 18:1 23:1 26:1 31:1 34:1 44:1 55:1 60:1 65:1 70:1 92:1 97:1 
0.12022169972345156 7:1 18:1 23:1 32:1 53:1 55:1 59:1 92:1 97:1 
0.081138108206485884 18:1 22:1 31:1 55:1 60:1 63:1 71:1 81:1 92:1 96:1 
0.00099034949642653092 18:1 23:1 25:1 26:1 29:1 34:1 39:1 55:1 56:1 57:1 92:1 97:1 100:1 108:1 
0.34352672592056316 18:1 23:1 26:1 34:1 55:1 60:1 62:1 63:1 66:1 71:1 90:1 92:1 97:1 100:1 
0.38242343252935618 18:1 23:1 31:1 55:1 60:1 71:1 92:1 97:1 99:1 100:1 107:1 108:1 
0.23378739810516513 18:1 23:1 25:1 26:1 33:1 34:1 55:1 60:1 68:1 92:1 97:1 103:1 106:1 
0.70436318597013825 2:1 4:1 18:1 19:1 20:1 37:1 38:1 53:1 55:1 59:1 60:1 77:1 92:1 97:1 103:1 
4 3:1 18:1 39:1 41:1 55:1 56:1 57:1 
2.7720483435202823 4:1 18:1 55:1 77:1 92:1 
4 3:1 18:1 41:1 55:1 
0.8570532030482314 18:1 26:1 55:1 60:1 71:1 75:1 86:1 92:1 
0.29726499205271817 7:1 18:1 23:1 25:1 28:1 38:1 49:1 55:1 75:1 92:1 
0.018110295645365208 12:1 15:1 16:1 18:1 19:1 22:1 23:1 52:1 53:1 55:1 66:1 92:1 96:1 
0.2639370366480458 18:1 29:1 49:1 52:1 53:1 55:1 56:1 59:1 92:1 103:1 105:1 
0.094424690677530496 12:1 15:1 16:1 18:1 19:1 22:1 49:1 52:1 53:1 55:1 56:1 59:1 86:1 89:1 90:1 92:1 93:1 96:1 97:1 
0.23983507190375639 12:1 15:1 16:1 18:1 19:1 22:1 23:1 49:1 52:1 53:1 55:1 56:1 59:1 92:1 96:1 103:1 
0.2362596458129152 12:1 15:1 16:1 18:1 19:1 22:1 39:1 55:1 56:1 57:1 92:1 96:1 
0.13119847099976431 18:1 22:1 49:1 52:1 53:1 55:1 56:1 59:1 92:1 96:1 
0.15893935748109389 18:1 31:1 49:1 52:1 53:1 55:1 56:1 59:1 76:1 92:1 93:1 94:1 
0.072186090633982805 12:1 15:1 16:1 18:1 19:1 49:1 52:1 53:1 55:1 56:1 59:1 92:1 105:1 
0.45666659424585576 12:1 15:1 16:1 18:1 19:1 22:1 39:1 55:1 56:1 57:1 92:1 96:1 97:1 
0.41006763139281288 18:1 22:1 23:1 49:1 52:1 53:1 55:1 56:1 59:1 92:1 
0.02950101218414742 12:1 15:1 16:1 18:1 19:1 31:1 39:1 55:1 56:1 57:1 92:1 102:1 
1.2741058034109773 18:1 28:1 49:1 52:1 53:1 55:1 56:1 68:1 92:1 96:1 
0.21374359990140507 1:1 9:1 18:1 37:1 38:1 46:1 55:1 92:1 110:1 
0.7948663107298285 7:1 18:1 38:1 55:1 59:1 75:1 92:1 
4 18:1 22:1 39:1 55:1 56:1 57:1 81:1 92:1 
2.4130354508026888 7:1 18:1 55:1 59:1 76:1 92:1 93:1 94:1 
1.4266031140067139 0:1 18:1 22:1 55:1 86:1 92:1 93:1 
0.2081768193759824 18:1 28:1 55:1 60:1 65:1 68:1 92:1 
0.22490327228392049 11:1 15:1 16:1 18:1 22:1 26:1 49:1 52:1 53:1 55:1 85:1 92:1 99:1 100:1 
0.47088492870546078 11:1 18:1 25:1 26:1 48:1 52:1 53:1 55:1 59:1 63:1 85:1 92:1 103:1 
0.71722950247100137 18:1 23:1 49:1 50:1 53:1 55:1 56:1 92:1 97:1 
2.2861670811231356 18:1 23:1 55:1 59:1 92:1 105:1 
3.6761857785711491 18:1 55:1 68:1 92:1 96:1 
0.19105435945280685 18:1 23:1 26:1 55:1 70:1 73:1 78:1 92:1 97:1 110:1 
1.1855351465814759 4:1 18:1 23:1 36:1 55:1 60:1 63:1 77:1 92:1 105:1 
0.22874308706404683 3:1 18:1 31:1 41:1 55:1 60:1 73:1 
0.38210030192534811 18:1 23:1 29:1 31:1 55:1 92:1 97:1 102:1 105:1 
4 4:1 18:1 39:1 55:1 56:1 57:1 77:1 92:1 
4 3:1 18:1 41:1 55:1 
0.39740444743127101 0:1 12:1 18:1 76:1 92:1 93:1 94:1 
1.7728540806059097 18:1 22:1 25:1 36:1 39:1 55:1 56:1 57:1 86:1 92:1 
4 3:1 18:1 39:1 41:1 55:1 56:1 57:1 
4 18:1 39:1 55:1 56:1 57:1 86:1 92:1 
4 18:1 39:1 55:1 56:1 57:1 86:1 92:1 
0.77353959584589582 4:1 12:1 18:1 39:1 55:1 56:1 57:1 77:1 80:1 86:1 87:1 88:1 90:1 92:1 93:1 94:1 
0.60952442706558063 3:1 6:1 12:1 13:1 14:1 16:1 18:1 19:1 20:1 41:1 49:1 55:1 
0.21330990478242948 18:1 22:1 26:1 29:1 34:1 76:1 92:1 93:1 94:1 
0.65304186809350495 2:1 18:1 19:1 20:1 55:1 59:1 63:1 66:1 71:1 78:1 86:1 92:1 
4 18:1 55:1 59:1 92:1 102:1 
0.71237411869122413 18:1 22:1 39:1 55:1 56:1 57:1 92:1 105:1 
4 18:1 22:1 39:1 55:1 56:1 57:1 92:1 97:1 
2.1196860170002303 18:1 55:1 59:1 81:1 92:1 97:1 99:1 108:1 
2.4289426541825336 18:1 55:1 59:1 66:1 92:1 
0.78656399273020106 18:1 23:1 31:1 55:1 59:1 92:1 
0.30980473524560842 18:1 22:1 39:1 55:1 56:1 57:1 92:1 99:1 
4 18:1 22:1 39:1 55:1 56:1 57:1 92:1 97:1 
2.3483741963235683 18:1 22:1 55:1 66:1 92:1 96:1 
0.4745294725590819 18:1 22:1 55:1 59:1 66:1 81:1 92:1 96:1 102:1 105:1 108:1 
1.4270376033436449 7:1 18:1 22:1 28:1 31:1 34:1 55:1 59:1 92:1 
1.9574960190829862 18:1 22:1 55:1 92:1 96:1 
2.4561908115404174 3:1 18:1 39:1 41:1 55:1 56:1 57:1 
0.018159743249686576 12:1 13:1 18:1 19:1 20:1 39:1 55:1 56:1 57:1 76:1 92:1 93:1 94:1 
3.6254544878853396 4:1 18:1 39:1 55:1 56:1 57:1 75:1 77:1 92:1 104:1 
4 1:1 3:1 18:1 30:1 41:1 55:1 
4 12:1 18:1 55:1 92:1 
1.1637190139307467 18:1 22:1 39:1 55:1 56:1 57:1 76:1 78:1 92:1 93:1 94:1 
0.033443795491093546 18:1 38:1 55:1 59:1 92:1 101:1 
0.11216626730597271 0:1 1:1 18:1 55:1 82:1 92:1 96:1 105:1 
0.29715591168748828 6:1 12:1 18:1 19:1 20:1 52:1 53:1 55:1 70:1 86:1 92:1 93:1 
0.064517474824563506 6:1 12:1 18:1 19:1 20:1 52:1 53:1 55:1 86:1 92:1 93:1 
0.06836956025017446 1:1 18:1 30:1 39:1 55:1 56:1 57:1 74:1 75:1 92:1 
0.51629565393813048 2:1 18:1 19:1 20:1 44:1 55:1 65:1 86:1 87:1 88:1 92:1 93:1 94:1 
0.57683737609205143 18:1 44:1 55:1 60:1 66:1 92:1 99:1 100:1 105:1 
0.21078321508687015 18:1 23:1 34:1 55:1 60:1 68:1 71:1 86:1 92:1 
4 3:1 12:1 18:1 39:1 41:1 55:1 56:1 57:1 
1.5302442444152167 18:1 22:1 31:1 39:1 55:1 56:1 57:1 78:1 92:1 
4 4:1 18:1 55:1 59:1 68:1 77:1 92:1 
4 3:1 18:1 41:1 55:1 
3.9787241918387641 18:1 22:1 31:1 39:1 55:1 56:1 57:1 78:1 92:1 
4 4:1 18:1 55:1 59:1 68:1 77:1 92:1 
4 3:1 18:1 41:1 55:1 
4 3:1 18:1 22:1 39:1 41:1 55:1 56:1 57:1 
0.040749332196531603 18:1 25:1 29:1 34:1 38:1 55:1 59:1 67:1 74:1 75:1 92:1 
0.66474780088473862 0:1 1:1 18:1 55:1 62:1 66:1 71:1 92:1 96:1 110:1 
0.040964441909073085 12:1 16:1 17:1 18:1 53:1 54:1 55:1 60:1 62:1 65:1 66:1 71:1 90:1 91:1 92:1 
0.21954875126200141 18:1 25:1 34:1 55:1 66:1 92:1 99:1 102:1 
1.2939892266760029 7:1 18:1 29:1 44:1 55:1 60:1 92:1 99:1 
0.11662980418156199 18:1 29:1 33:1 37:1 38:1 55:1 76:1 92:1 93:1 94:1 
4 4:1 18:1 38:1 55:1 77:1 92:1 
4 3:1 18:1 41:1 55:1 
0.12409067756816251 2:1 18:1 19:1 20:1 46:1 55:1 65:1 68:1 85:1 92:1 105:1 108:1 
0.053230557925487691 2:1 18:1 19:1 20:1 48:1 55:1 68:1 71:1 92:1 96:1 99:1 108:1 
0.08144045068712974 2:1 18:1 19:1 20:1 47:1 53:1 55:1 62:1 65:1 71:1 85:1 92:1 105:1 
2.1985949760406784 18:1 22:1 39:1 55:1 56:1 57:1 74:1 92:1 96:1 
1.5833474221289379 18:1 31:1 55:1 59:1 92:1 
2.5258204217391427 3:1 18:1 22:1 31:1 37:1 41:1 49:1 55:1 
1.0365895216767302 18:1 23:1 32:1 55:1 74:1 86:1 92:1 
4 18:1 49:1 55:1 92:1 
4 18:1 55:1 78:1 92:1 
4 4:1 18:1 55:1 77:1 86:1 92:1 
2.5247885356407185 18:1 55:1 59:1 74:1 86:1 90:1 92:1 
0.66772570711270718 18:1 39:1 55:1 56:1 57:1 84:1 92:1 
0.1013822883182296 18:1 32:1 33:1 48:1 49:1 55:1 76:1 92:1 93:1 94:1 
0.29745284455150189 12:1 18:1 39:1 55:1 56:1 57:1 85:1 86:1 92:1 
0.047438749245867703 2:1 18:1 19:1 20:1 55:1 60:1 62:1 69:1 70:1 71:1 92:1 96:1 97:1 99:1 105:1 106:1 108:1 
4 12:1 18:1 39:1 55:1 56:1 57:1 92:1 
1.8320719459260926 18:1 49:1 55:1 83:1 92:1 
0.40274435835838801 7:1 18:1 23:1 38:1 55:1 59:1 67:1 92:1 103:1 107:1 
0.040590706586186465 18:1 36:1 49:1 55:1 76:1 92:1 93:1 94:1 
4 4:1 18:1 39:1 55:1 56:1 57:1 77:1 92:1 
4 3:1 18:1 41:1 55:1 
0.10185454375125229 2:1 18:1 19:1 20:1 53:1 55:1 60:1 62:1 65:1 66:1 70:1 71:1 72:1 76:1 92:1 93:1 94:1 
2.1780040595132997 18:1 38:1 55:1 74:1 92:1 
0.37364534805694971 18:1 28:1 55:1 60:1 63:1 92:1 99:1 103:1 
0.079429016688411763 18:1 25:1 29:1 55:1 65:1 92:1 102:1 103:1 
1.4260002325605039 16:1 18:1 55:1 59:1 74:1 78:1 92:1 96:1 
4 3:1 18:1 23:1 37:1 41:1 55:1 59:1 
0.052047798951976233 4:1 18:1 22:1 77:1 92:1 
2.8980762928369517 1:1 18:1 30:1 38:1 55:1 86:1 92:1 
2.7178459682095353 1:1 18:1 30:1 49:1 55:1 76:1 92:1 93:1 94:1 
1.2657289509933964 1:1 18:1 38:1 55:1 92:1 99:1 102:1 
0.068819040376947013 18:1 25:1 28:1 38:1 55:1 75:1 86:1 92:1 
1.0184673792520029 1:1 12:1 18:1 55:1 62:1 65:1 92:1 
0.15024312113530341 18:1 38:1 49:1 55:1 86:1 92:1 104:1 
0.60006278978861671 12:1 18:1 30:1 55:1 81:1 92:1 97:1 
2.7680863144774857 7:1 18:1 23:1 49:1 55:1 67:1 75:1 92:1 104:1 
0.76948676844906072 1:1 18:1 30:1 44:1 55:1 60:1 92:1 
2.1802846092903261 1:1 18:1 30:1 86:1 92:1 93:1 
0.84461515203725024 18:1 27:1 78:1 92:1 
4 3:1 18:1 23:1 41:1 55:1 
0.2539584238082554 15:1 16:1 18:1 22:1 49:1 52:1 53:1 55:1 56:1 75:1 81:1 89:1 90:1 92:1 105:1 
0.30971598271759021 0:1 7:1 15:1 16:1 18:1 23:1 38:1 44:1 52:1 53:1 55:1 68:1 89:1 90:1 92:1 93:1 99:1 102:1 
0.47502168804658595 15:1 16:1 18:1 19:1 25:1 28:1 37:1 44:1 52:1 53:1 55:1 60:1 86:1 92:1 93:1 
4 3:1 18:1 39:1 41:1 55:1 56:1 57:1 
1.1132094484654116 18:1 43:1 49:1 50:1 55:1 56:1 57:1 92:1 96:1 97:1 
0.63516631245664334 6:1 12:1 13:1 14:1 18:1 19:1 20:1 55:1 92:1 97:1 
0.54655105697726325 6:1 12:1 13:1 14:1 18:1 19:1 20:1 52:1 53:1 55:1 92:1 97:1 
2.2871051648209071 18:1 23:1 43:1 49:1 50:1 51:1 55:1 56:1 57:1 92:1 
1.1721490697418109 18:1 55:1 60:1 92:1 96:1 99:1 
0.032289516611996347 18:1 43:1 49:1 50:1 51:1 53:1 55:1 56:1 57:1 78:1 92:1 97:1 106:1 
4 18:1 55:1 86:1 87:1 88:1 92:1 93:1 94:1 
0.55972739624110224 9:1 18:1 46:1 49:1 53:1 55:1 78:1 83:1 86:1 90:1 92:1 
0.6909027133251745 4:1 9:1 12:1 16:1 18:1 46:1 55:1 77:1 92:1 97:1 
4 18:1 22:1 39:1 55:1 56:1 57:1 81:1 92:1 97:1 103:1 
1.710975274948918 7:1 18:1 23:1 29:1 55:1 59:1 86:1 87:1 88:1 92:1 93:1 94:1 
0.56162127819952534 1:1 18:1 49:1 55:1 75:1 92:1 104:1 
0.02779101074175945 9:1 12:1 18:1 49:1 55:1 66:1 86:1 92:1 
4 12:1 18:1 49:1 55:1 86:1 92:1 
4 12:1 18:1 49:1 55:1 86:1 92:1 
4 12:1 18:1 49:1 55:1 86:1 92:1 
4 12:1 18:1 49:1 55:1 86:1 92:1 
0.10609290034230164 18:1 25:1 28:1 34:1 39:1 55:1 56:1 57:1 92:1 97:1 101:1 
0.46999599233740469 7:1 18:1 39:1 46:1 55:1 56:1 57:1 86:1 92:1 
1.572402114595592 12:1 18:1 44:1 55:1 76:1 92:1 93:1 94:1 
0.65189466399382134 10:1 18:1 39:1 55:1 56:1 57:1 76:1 78:1 92:1 93:1 94:1 
3.2234457625372666 1:1 18:1 55:1 78:1 92:1 
4 4:1 18:1 38:1 55:1 77:1 92:1 
4 3:1 18:1 41:1 55:1 
0.78928601466376247 18:1 39:1 55:1 56:1 57:1 92:1 96:1 100:1 105:1 
0.41252274328940269 18:1 55:1 92:1 96:1 101:1 
1.2355888948945206 18:1 22:1 27:1 55:1 86:1 92:1 
4 12:1 18:1 55:1 59:1 64:1 92:1 
4 18:1 49:1 55:1 92:1 
4 8:1 18:1 55:1 92:1 96:1 
0.39825819901229659 18:1 22:1 45:1 55:1 92:1 
0.070858315396521293 18:1 22:1 25:1 55:1 60:1 62:1 81:1 92:1 96:1 97:1 
4 18:1 55:1 74:1 92:1 96:1 
1.3800761198497684 0:1 18:1 22:1 55:1 92:1 97:1 
4 18:1 23:1 37:1 55:1 59:1 74:1 78:1 92:1 103:1 
2.8001570016697275 0:1 4:1 18:1 29:1 55:1 60:1 77:1 92:1 97:1 
4 3:1 18:1 23:1 37:1 41:1 55:1 66:1 
4 18:1 22:1 39:1 55:1 56:1 57:1 92:1 97:1 
1.6794907034358939 18:1 34:1 55:1 59:1 92:1 
0.4161324396556873 1:1 18:1 39:1 55:1 56:1 57:1 76:1 78:1 92:1 93:1 94:1 
0.043043537752883082 2:1 4:1 18:1 19:1 20:1 38:1 55:1 77:1 92:1 96:1 
4 3:1 18:1 22:1 39:1 41:1 55:1 56:1 57:1 
1.2708981643183495 12:1 16:1 18:1 39:1 55:1 56:1 57:1 78:1 86:1 92:1 93:1 
0.27199435226135243 18:1 29:1 53:1 55:1 59:1 82:1 86:1 92:1 103:1 
1.4703051513357859 18:1 55:1 59:1 81:1 92:1 103:1 108:1 109:1 
4 3:1 18:1 39:1 41:1 55:1 56:1 57:1 
0.60343621767970845 1:1 18:1 45:1 55:1 63:1 71:1 75:1 92:1 104:1 
0.0054127415506452772 52:1 53:1 55:1 63:1 70:1 82:1 89:1 90:1 92:1 100:1 108:1 
0.03861031451729776 18:1 39:1 55:1 56:1 57:1 92:1 96:1 105:1 107:1 
0.82516320711911417 18:1 22:1 29:1 31:1 34:1 55:1 59:1 92:1 93:1 
0.24038807339368704 18:1 19:1 55:1 59:1 66:1 68:1 71:1 92:1 96:1 103:1 
1.6903520984132181 18:1 22:1 29:1 55:1 56:1 92:1 96:1 105:1 
2.6369840601980825 18:1 39:1 55:1 56:1 57:1 92:1 103:1 105:1 
0.45675655762865802 18:1 23:1 55:1 59:1 70:1 71:1 81:1 92:1 96:1 97:1 103:1 
0.63290838382312054 18:1 39:1 55:1 56:1 57:1 92:1 96:1 103:1 
0.22668571203444735 18:1 22:1 28:1 29:1 55:1 60:1 66:1 92:1 97:1 99:1 101:1 107:1 
0.16125763621075478 18:1 23:1 55:1 63:1 92:1 102:1 108:1 109:1 
0.30687670860643668 7:1 18:1 22:1 25:1 31:1 34:1 55:1 59:1 66:1 92:1 97:1 109:1 
0.91495964749441538 12:1 18:1 49:1 55:1 90:1 92:1 96:1 97:1 
2.441305574206293 0:1 4:1 18:1 22:1 53:1 55:1 77:1 92:1 97:1 
4 3:1 18:1 23:1 37:1 41:1 55:1 59:1 
0.37011888491921452 18:1 25:1 26:1 28:1 55:1 75:1 92:1 96:1 104:1 
1.5123544616415918 1:1 18:1 22:1 30:1 55:1 62:1 63:1 65:1 75:1 92:1 
0.62927226940909253 1:1 12:1 18:1 38:1 55:1 59:1 92:1 97:1 
2.054541333264492 18:1 55:1 86:1 87:1 92:1 93:1 
0.3646037321263268 1:1 3:1 18:1 39:1 41:1 55:1 56:1 57:1 
0.553853965461097 18:1 22:1 34:1 39:1 55:1 56:1 57:1 92:1 
0.44235707161581922 18:1 55:1 59:1 71:1 92:1 
0.92704728741151565 12:1 18:1 75:1 92:1 96:1 
3.9205179763794895 1:1 18:1 22:1 49:1 55:1 92:1 
0.055387610378501484 9:1 16:1 18:1 38:1 49:1 52:1 53:1 54:1 55:1 59:1 66:1 70:1 76:1 92:1 93:1 94:1 
0.24772922041450035 7:1 10:1 15:1 16:1 18:1 23:1 49:1 52:1 53:1 55:1 84:1 89:1 90:1 92:1 99:1 108:1 
0.27138493642213268 10:1 15:1 16:1 18:1 25:1 34:1 44:1 47:1 52:1 53:1 55:1 60:1 84:1 89:1 90:1 92:1 
0.42344896189663095 18:1 33:1 39:1 55:1 56:1 57:1 82:1 92:1 107:1 
0.043691054154888172 8:1 18:1 33:1 55:1 70:1 76:1 92:1 93:1 94:1 
4 18:1 39:1 55:1 56:1 57:1 86:1 92:1 
0.16428026233946691 18:1 36:1 38:1 55:1 67:1 81:1 
4 18:1 55:1 78:1 92:1 
4 3:1 18:1 41:1 55:1 
0.10568922091450253 18:1 38:1 49:1 55:1 59:1 67:1 92:1 105:1 
2.4452253343186836 0:1 3:1 18:1 39:1 41:1 55:1 56:1 57:1 
1.9131352729063666 18:1 22:1 39:1 55:1 56:1 57:1 74:1 92:1 
3.1709439210373582 0:1 18:1 55:1 59:1 76:1 78:1 92:1 93:1 94:1 
1.4571093679026001 18:1 39:1 55:1 56:1 57:1 86:1 92:1 97:1 
0.48003378398654895 1:1 12:1 18:1 49:1 53:1 55:1 75:1 86:1 92:1 
1.0903161676719182 18:1 29:1 38:1 49:1 55:1 92:1 96:1 
0.047549393135129125 12:1 13:1 14:1 15:1 16:1 18:1 19:1 20:1 49:1 50:1 51:1 52:1 53:1 55:1 56:1 57:1 89:1 90:1 92:1 93:1 96:1 
0.048477254336814601 12:1 13:1 14:1 15:1 16:1 18:1 19:1 20:1 49:1 50:1 51:1 52:1 53:1 55:1 56:1 57:1 81:1 89:1 90:1 92:1 97:1 
0.69114264871141118 18:1 55:1 75:1 81:1 92:1 97:1 
1.2713150281850547 18:1 38:1 44:1 55:1 60:1 92:1 
0.40185568218140871 4:1 12:1 13:1 14:1 15:1 16:1 18:1 19:1 20:1 55:1 77:1 86:1 87:1 88:1 89:1 90:1 92:1 93:1 94:1 
0.15966980239653203 18:1 33:1 38:1 55:1 59:1 67:1 75:1 92:1 103:1 104:1 107:1 
4 3:1 18:1 39:1 41:1 55:1 56:1 57:1 
0.3496945101203725 12:1 18:1 55:1 75:1 92:1 96:1 104:1 
2.2460407725769187 1:1 18:1 22:1 30:1 49:1 55:1 92:1 
0.051935739162776398 1:1 16:1 18:1 23:1 30:1 49:1 50:1 51:1 53:1 55:1 56:1 57:1 86:1 90:1 92:1 
0.29111983513897133 12:1 13:1 14:1 16:1 18:1 19:1 20:1 38:1 53:1 55:1 59:1 76:1 92:1 93:1 94:1 
0.0021144371624131314 2:1 18:1 19:1 20:1 42:1 43:1 49:1 50:1 51:1 53:1 55:1 56:1 57:1 75:1 92:1 96:1 104:1 
0.082384747425799765 5:1 12:1 13:1 16:1 18:1 19:1 20:1 39:1 55:1 56:1 57:1 79:1 86:1 87:1 88:1 90:1 92:1 93:1 94:1 
0.39415411688014435 5:1 12:1 13:1 14:1 16:1 18:1 19:1 20:1 42:1 49:1 50:1 53:1 55:1 56:1 57:1 92:1 96:1 97:1 
0.072883157760634393 18:1 22:1 23:1 42:1 49:1 50:1 51:1 53:1 55:1 56:1 57:1 92:1 100:1 
0.58761842681329302 18:1 26:1 55:1 59:1 60:1 75:1 92:1 
0.0039040161787428614 18:1 29:1 33:1 44:1 55:1 60:1 63:1 65:1 71:1 92:1 
0.45672441540673608 18:1 23:1 33:1 55:1 68:1 92:1 107:1 
0.30450002874846166 18:1 27:1 33:1 55:1 64:1 70:1 92:1 97:1 101:1 
0.1501731221193833 18:1 25:1 32:1 39:1 55:1 56:1 57:1 92:1 96:1 99:1 102:1 103:1 
0.26389071549392412 7:1 18:1 25:1 32:1 34:1 55:1 59:1 62:1 69:1 92:1 
0.032690782457153282 2:1 18:1 19:1 20:1 55:1 65:1 66:1 69:1 71:1 92:1 101:1 110:1 
2.4331487394224216 18:1 55:1 62:1 71:1 86:1 92:1 
0.049879578727393854 18:1 55:1 62:1 66:1 71:1 92:1 99:1 103:1 108:1 
2.2432523634970911 18:1 25:1 29:1 34:1 55:1 86:1 92:1 
0.40029829645538922 18:1 36:1 38:1 55:1 60:1 67:1 81:1 92:1 97:1 99:1 
0.28246728264464105 6:1 12:1 13:1 14:1 16:1 18:1 19:1 20:1 55:1 63:1 65:1 71:1 92:1 103:1 106:1 108:1 
0.23324558918792368 18:1 28:1 34:1 39:1 55:1 56:1 57:1 92:1 105:1 108:1 
0.33255195461630227 18:1 31:1 34:1 55:1 65:1 71:1 92:1 
0.38341144989984799 18:1 34:1 55:1 65:1 71:1 92:1 
2.8940876464935306 18:1 22:1 39:1 55:1 56:1 57:1 92:1 105:1 
4 12:1 18:1 19:1 39:1 55:1 56:1 57:1 92:1 
4 18:1 49:1 55:1 56:1 86:1 92:1 
4 18:1 39:1 55:1 56:1 57:1 86:1 92:1 
4 18:1 39:1 55:1 56:1 57:1 86:1 92:1 
4 3:1 18:1 39:1 41:1 55:1 56:1 57:1 
0.33045132792624143 18:1 22:1 33:1 39:1 55:1 56:1 57:1 76:1 78:1 92:1 93:1 94:1 
0.03912973108571071 18:1 29:1 55:1 68:1 92:1 102:1 103:1 105:1 
0.094784468154842441 18:1 55:1 60:1 63:1 66:1 76:1 78:1 92:1 93:1 94:1 
4 1:1 18:1 22:1 39:1 55:1 56:1 57:1 86:1 92:1 93:1 
0.017295246891833062 1:1 12:1 15:1 16:1 18:1 22:1 30:1 37:1 38:1 53:1 55:1 59:1 67:1 74:1 75:1 89:1 90:1 92:1 96:1 
0.94854934091761611 2:1 18:1 19:1 20:1 55:1 75:1 78:1 81:1 85:1 92:1 96:1 97:1 100:1 
1.473353745081859 1:1 12:1 18:1 55:1 59:1 75:1 92:1 104:1 
4 18:1 22:1 55:1 59:1 74:1 75:1 92:1 
0.23169910358404464 18:1 25:1 55:1 71:1 92:1 101:1 
0.0050700381786680775 18:1 25:1 55:1 59:1 62:1 65:1 69:1 81:1 92:1 99:1 108:1 
0.63604492987438421 7:1 18:1 25:1 34:1 55:1 62:1 92:1 99:1 100:1 106:1 108:1 
0.22537593965613645 18:1 25:1 26:1 32:1 34:1 44:1 55:1 62:1 71:1 92:1 97:1 99:1 102:1 106:1 
0.11954054612166218 18:1 23:1 25:1 28:1 32:1 55:1 62:1 63:1 69:1 71:1 92:1 99:1 100:1 
0.34583352338996154 18:1 25:1 26:1 55:1 60:1 62:1 65:1 69:1 86:1 92:1 110:1 
0.5160331902401829 18:1 25:1 28:1 55:1 62:1 66:1 71:1 92:1 
0.10076467663846417 18:1 25:1 26:1 32:1 55:1 71:1 92:1 100:1 
0.055320187024924847 18:1 25:1 26:1 32:1 55:1 62:1 63:1 69:1 92:1 99:1 103:1 
0.49916596468092106 18:1 34:1 55:1 66:1 92:1 100:1 
1.2017879204151067 18:1 55:1 92:1 99:1 100:1 108:1 
0.15747653774385295 18:1 29:1 55:1 62:1 69:1 71:1 92:1 102:1 
4 18:1 39:1 55:1 56:1 57:1 86:1 92:1 
1.8267291068997364 18:1 22:1 29:1 55:1 92:1 
2.2698130364630118 18:1 29:1 55:1 59:1 92:1 97:1 102:1 
0.24849470097890922 18:1 29:1 55:1 59:1 92:1 96:1 102:1 103:1 
1.6321127890431206 18:1 55:1 59:1 92:1 99:1 102:1 105:1 
1.6624642475260016 18:1 55:1 68:1 92:1 96:1 
0.61609535435463481 18:1 22:1 25:1 29:1 55:1 59:1 60:1 92:1 102:1 
0.6594885688130846 18:1 28:1 55:1 59:1 62:1 66:1 92:1 96:1 
0.038113593302100596 18:1 55:1 92:1 96:1 100:1 
0.25604814991045305 18:1 31:1 55:1 59:1 92:1 99:1 103:1 
0.033454657708447029 18:1 25:1 29:1 55:1 68:1 92:1 96:1 107:1 
1.2934750560585713 18:1 55:1 60:1 66:1 78:1 90:1 92:1 97:1 
4 18:1 55:1 86:1 87:1 88:1 92:1 93:1 94:1 
2.3510991399412764 18:1 22:1 27:1 39:1 55:1 56:1 57:1 92:1 100:1 
0.15480399591212879 18:1 22:1 34:1 49:1 53:1 55:1 76:1 92:1 93:1 94:1 
2.7324739318926015 18:1 22:1 49:1 53:1 55:1 76:1 92:1 93:1 94:1 
0.90035960289284511 18:1 22:1 55:1 92:1 96:1 101:1 
0.67478008699289971 18:1 27:1 34:1 55:1 64:1 92:1 96:1 
4 18:1 23:1 55:1 78:1 92:1 
4 4:1 18:1 55:1 60:1 77:1 86:1 92:1 96:1 
4 3:1 12:1 18:1 22:1 41:1 55:1 
2.7450088879924577 9:1 12:1 13:1 14:1 18:1 19:1 20:1 55:1 60:1 92:1 
0.84346673819938467 18:1 46:1 49:1 50:1 51:1 55:1 56:1 57:1 76:1 92:1 93:1 94:1 
0.29793847086991559 18:1 23:1 49:1 50:1 53:1 55:1 56:1 92:1 97:1 
4 18:1 55:1 78:1 92:1 97:1 
4 4:1 18:1 23:1 55:1 77:1 92:1 96:1 
4 3:1 18:1 22:1 41:1 55:1 60:1 
4 18:1 55:1 60:1 78:1 92:1 
4 4:1 18:1 55:1 77:1 92:1 96:1 102:1 
4 3:1 18:1 22:1 28:1 41:1 55:1 
2.9348095322307675 18:1 19:1 55:1 86:1 92:1 93:1 94:1 
3.8333772567984061 12:1 18:1 19:1 39:1 55:1 56:1 57:1 76:1 92:1 93:1 94:1 
2.369277378207479 12:1 18:1 22:1 26:1 39:1 55:1 56:1 57:1 86:1 92:1 102:1 
1.3142084047754812 12:1 18:1 28:1 49:1 55:1 59:1 63:1 86:1 92:1 100:1 
3.0793774825653983 12:1 18:1 26:1 49:1 55:1 65:1 86:1 92:1 96:1 
1.5992234428053473 12:1 18:1 22:1 49:1 55:1 63:1 86:1 92:1 97:1 
2.6429249623266804 12:1 18:1 23:1 49:1 55:1 59:1 86:1 92:1 105:1 
0.33372292565315043 12:1 18:1 31:1 49:1 55:1 60:1 86:1 90:1 92:1 96:1 
0.43225223332557661 2:1 18:1 19:1 20:1 39:1 55:1 56:1 57:1 78:1 92:1 93:1 96:1 
0.50952385420423174 3:1 12:1 16:1 18:1 23:1 29:1 36:1 39:1 41:1 55:1 56:1 57:1 
0.40410995794212984 18:1 22:1 31:1 39:1 55:1 56:1 57:1 78:1 92:1 96:1 
0.55627273984514225 4:1 18:1 22:1 55:1 59:1 68:1 77:1 92:1 
4 3:1 18:1 41:1 55:1 59:1 
0.42465401411087084 18:1 30:1 38:1 49:1 55:1 81:1 92:1 97:1 
1.0567473825683664 1:1 12:1 18:1 55:1 59:1 68:1 92:1 99:1 102:1 
0.64538743061479831 1:1 18:1 30:1 39:1 55:1 56:1 57:1 92:1 105:1 
1.7041303642997494 18:1 31:1 38:1 55:1 67:1 92:1 97:1 
0.69674915823167849 7:1 18:1 23:1 55:1 59:1 68:1 73:1 81:1 97:1 
0.13415942904651373 2:1 18:1 19:1 20:1 44:1 60:1 75:1 92:1 96:1 104:1 105:1 
1.5268908589221732 1:1 18:1 22:1 30:1 31:1 39:1 55:1 56:1 57:1 81:1 92:1 97:1 
0.54646077955526662 1:1 18:1 22:1 39:1 55:1 56:1 57:1 92:1 97:1 102:1 105:1 108:1 
0.04291813584014776 2:1 18:1 19:1 20:1 55:1 60:1 65:1 68:1 71:1 75:1 81:1 92:1 96:1 97:1 105:1 
4 1:1 18:1 22:1 39:1 55:1 56:1 57:1 81:1 92:1 97:1 105:1 
1.1012059339352676 7:1 18:1 23:1 31:1 38:1 55:1 59:1 76:1 92:1 93:1 94:1 
1.5176761731164332 10:1 18:1 47:1 55:1 84:1 92:1 96:1 105:1 
0.33243587569546673 10:1 18:1 47:1 55:1 59:1 68:1 83:1 92:1 
0.5105860533408495 18:1 23:1 38:1 55:1 75:1 78:1 90:1 92:1 
0.55128308466462217 1:1 4:1 16:1 18:1 55:1 60:1 77:1 80:1 86:1 87:1 88:1 90:1 92:1 93:1 94:1 
0.073765401480983456 0:1 18:1 39:1 55:1 56:1 57:1 76:1 78:1 92:1 93:1 94:1 
4 3:1 18:1 39:1 41:1 55:1 56:1 57:1 
0.081355755502810143 1:1 15:1 16:1 17:1 18:1 30:1 38:1 49:1 52:1 53:1 54:1 55:1 59:1 74:1 75:1 89:1 90:1 91:1 92:1 96:1 
0.16616191889898052 0:1 1:1 15:1 16:1 17:1 18:1 22:1 38:1 52:1 53:1 54:1 55:1 67:1 76:1 92:1 93:1 94:1 
4 18:1 22:1 39:1 55:1 56:1 57:1 92:1 105:1 
0.95986537037624309 18:1 19:1 55:1 56:1 57:1 92:1 93:1 103:1 
0.15270880253871452 18:1 19:1 55:1 60:1 66:1 70:1 92:1 93:1 94:1 
0.30333440538975803 18:1 55:1 56:1 57:1 75:1 92:1 93:1 
0.15690595652825873 1:1 18:1 19:1 55:1 92:1 93:1 94:1 
0.059503573365365069 18:1 19:1 20:1 38:1 55:1 56:1 92:1 93:1 94:1 
0.13429949187995782 18:1 49:1 53:1 55:1 92:1 93:1 
0.0010009984081045295 18:1 19:1 20:1 55:1 56:1 57:1 78:1 92:1 93:1 94:1 
0.10187636026300631 4:1 18:1 19:1 20:1 55:1 56:1 57:1 77:1 92:1 93:1 94:1 
0.22135416045550438 3:1 18:1 19:1 20:1 41:1 55:1 56:1 57:1 
0.55219530997532795 0:1 1:1 18:1 38:1 49:1 55:1 69:1 76:1 92:1 93:1 94:1 
0.076636736758853727 18:1 34:1 39:1 55:1 56:1 57:1 92:1 100:1 107:1 
0.042996304419175652 18:1 26:1 33:1 55:1 71:1 92:1 97:1 103:1 107:1 
0.035116641269907267 18:1 23:1 29:1 33:1 55:1 63:1 70:1 92:1 101:1 107:1 
0.052675473029190331 18:1 27:1 33:1 55:1 60:1 66:1 70:1 92:1 107:1 
0.52136891782281924 18:1 28:1 55:1 62:1 70:1 92:1 99:1 107:1 
0.11564199735132585 18:1 34:1 55:1 62:1 70:1 92:1 101:1 107:1 108:1 
2.0091284306438499 18:1 33:1 55:1 92:1 96:1 103:1 
0.039656454726709027 18:1 23:1 49:1 50:1 53:1 55:1 56:1 76:1 92:1 93:1 94:1 
4 18:1 39:1 55:1 56:1 57:1 86:1 92:1 
4 18:1 39:1 55:1 56:1 57:1 86:1 92:1 
4 18:1 39:1 55:1 56:1 57:1 86:1 92:1 
4 18:1 39:1 55:1 56:1 57:1 86:1 92:1 
4 18:1 39:1 55:1 56:1 57:1 86:1 92:1 
0.35012233046239022 2:1 4:1 18:1 19:1 20:1 39:1 55:1 56:1 57:1 77:1 86:1 87:1 92:1 93:1 94:1 
4 3:1 12:1 13:1 18:1 19:1 20:1 39:1 41:1 55:1 56:1 57:1 
0.038214267032742083 1:1 12:1 15:1 16:1 18:1 22:1 30:1 37:1 38:1 49:1 52:1 53:1 55:1 76:1 92:1 93:1 94:1 
4 7:1 18:1 23:1 55:1 60:1 92:1 96:1 102:1 
3.4606004387539651 18:1 22:1 28:1 44:1 55:1 60:1 74:1 86:1 90:1 92:1 
0.12741169548241119 7:1 18:1 22:1 42:1 49:1 50:1 53:1 55:1 56:1 57:1 81:1 92:1 105:1 
4 7:1 18:1 31:1 44:1 55:1 59:1 81:1 92:1 93:1 97:1 
1.6256839139334434 7:1 18:1 19:1 23:1 44:1 55:1 68:1 75:1 92:1 93:1 99:1 102:1 104:1 
0.67019427876437909 1:1 18:1 19:1 25:1 28:1 30:1 44:1 55:1 56:1 60:1 76:1 92:1 93:1 94:1 
1.3381352149361923 2:1 18:1 19:1 20:1 38:1 55:1 56:1 62:1 65:1 67:1 86:1 92:1 93:1 
0.075302341224804559 18:1 55:1 60:1 68:1 71:1 86:1 87:1 88:1 90:1 92:1 93:1 94:1 
0.86719024400158584 4:1 12:1 16:1 18:1 39:1 55:1 56:1 57:1 77:1 86:1 90:1 92:1 
4 3:1 18:1 39:1 41:1 55:1 56:1 57:1 
0.20147711060817317 18:1 44:1 55:1 60:1 92:1 100:1 
0.12140317193647025 0:1 1:1 18:1 55:1 63:1 74:1 75:1 92:1 
0.083461844629136986 12:1 15:1 16:1 18:1 44:1 52:1 53:1 55:1 62:1 65:1 71:1 86:1 89:1 90:1 92:1 
0.18301173943731316 18:1 25:1 55:1 62:1 68:1 92:1 97:1 99:1 
1.2922436521399829 18:1 55:1 59:1 92:1 99:1 
0.01919964094265094 1:1 18:1 30:1 55:1 60:1 75:1 92:1 
0.44024951344112168 1:1 18:1 38:1 55:1 67:1 92:1 103:1 
1.3789909570691312 18:1 29:1 38:1 55:1 92:1 99:1 108:1 
0.4554167814809279 12:1 18:1 36:1 55:1 75:1 92:1 96:1 
0.47817169124792258 0:1 1:1 18:1 55:1 59:1 75:1 92:1 
0.38082483623790453 18:1 53:1 55:1 60:1 70:1 76:1 78:1 92:1 93:1 94:1 
1.3075926479720414 3:1 12:1 16:1 18:1 39:1 41:1 55:1 56:1 57:1 
4 18:1 22:1 39:1 55:1 56:1 57:1 92:1 97:1 
0.089569640999951808 18:1 23:1 31:1 39:1 55:1 56:1 57:1 92:1 96:1 100:1 102:1 105:1 108:1 
0.068525363606361828 18:1 22:1 26:1 28:1 31:1 34:1 55:1 60:1 68:1 76:1 92:1 93:1 94:1 
0.1561118488470222 2:1 18:1 19:1 20:1 44:1 55:1 65:1 68:1 81:1 92:1 96:1 105:1 110:1 
1.9374594438304422 18:1 19:1 55:1 60:1 92:1 106:1 
1.3070858047095044 18:1 22:1 28:1 39:1 55:1 56:1 57:1 92:1 97:1 
4 18:1 55:1 78:1 92:1 
4 3:1 18:1 41:1 55:1 
0.79531862756178384 18:1 55:1 59:1 73:1 81:1 92:1 97:1 
4 12:1 18:1 39:1 55:1 56:1 57:1 92:1 
4 18:1 49:1 55:1 92:1 
0.14774709389677887 18:1 22:1 36:1 37:1 38:1 55:1 92:1 99:1 100:1 108:1 
0.73827101713479515 12:1 16:1 18:1 39:1 55:1 56:1 57:1 86:1 87:1 88:1 92:1 93:1 94:1 
4 18:1 55:1 74:1 86:1 92:1 
0.46238079164670437 0:1 12:1 18:1 55:1 76:1 92:1 93:1 94:1 
4 4:1 18:1 39:1 55:1 56:1 57:1 77:1 92:1 
4 3:1 18:1 41:1 55:1 
0.14748667343001243 2:1 18:1 19:1 20:1 38:1 55:1 66:1 67:1 70:1 75:1 89:1 90:1 91:1 92:1 96:1 103:1 104:1 107:1 
0.06436586322347744 1:1 15:1 16:1 17:1 18:1 22:1 29:1 30:1 33:1 39:1 55:1 56:1 57:1 76:1 92:1 93:1 94:1 
0.2202397118905626 2:1 18:1 19:1 20:1 38:1 52:1 53:1 54:1 55:1 59:1 66:1 67:1 70:1 74:1 75:1 90:1 92:1 96:1 
0.55237309745058372 9:1 18:1 31:1 46:1 55:1 82:1 83:1 92:1 
1.8722936908774139 18:1 55:1 92:1 96:1 101:1 
0.40768633214084027 18:1 22:1 27:1 55:1 81:1 92:1 103:1 107:1 
1.2961846795938516 7:1 18:1 29:1 33:1 55:1 59:1 64:1 83:1 92:1 
1.2152535798038788 9:1 18:1 44:1 55:1 66:1 70:1 83:1 92:1 
0.0030515163166255016 9:1 18:1 46:1 55:1 83:1 92:1 93:1 
0.10718596885697776 12:1 16:1 17:1 18:1 19:1 49:1 53:1 54:1 55:1 86:1 87:1 88:1 90:1 91:1 92:1 93:1 94:1 
0.63525981770228135 12:1 13:1 14:1 16:1 17:1 18:1 19:1 20:1 49:1 53:1 54:1 55:1 56:1 75:1 81:1 83:1 90:1 91:1 92:1 96:1 97:1 99:1 100:1 104:1 
0.67135094183893462 1:1 7:1 9:1 16:1 17:1 18:1 22:1 23:1 25:1 26:1 30:1 49:1 50:1 51:1 53:1 54:1 55:1 56:1 57:1 81:1 85:1 90:1 91:1 92:1 
0.6932954881470198 7:1 11:1 16:1 17:1 18:1 38:1 44:1 46:1 53:1 54:1 55:1 59:1 60:1 62:1 63:1 67:1 86:1 87:1 88:1 90:1 91:1 92:1 93:1 94:1 
0.50527308298230522 12:1 13:1 14:1 16:1 17:1 18:1 19:1 20:1 44:1 48:1 53:1 54:1 55:1 92:1 
0.47334444145006566 18:1 44:1 55:1 92:1 
2.4858846837258501 18:1 19:1 55:1 56:1 92:1 
4 18:1 19:1 55:1 92:1 93:1 
1.2251282767796257 18:1 22:1 29:1 55:1 92:1 108:1 
0.0034175782798415094 18:1 25:1 33:1 39:1 55:1 56:1 57:1 76:1 78:1 92:1 93:1 94:1 
0.11989820697342733 18:1 22:1 39:1 55:1 56:1 57:1 76:1 78:1 92:1 93:1 94:1 
4 3:1 18:1 22:1 39:1 41:1 55:1 56:1 57:1 
0.0010772306593166477 1:1 12:1 18:1 33:1 38:1 53:1 55:1 59:1 92:1 103:1 
0.13968388792540881 12:1 15:1 16:1 17:1 18:1 49:1 50:1 51:1 52:1 53:1 55:1 56:1 57:1 75:1 89:1 90:1 91:1 92:1 96:1 104:1 
0.018169696401523442 15:1 16:1 17:1 18:1 26:1 49:1 52:1 53:1 54:1 55:1 59:1 86:1 87:1 88:1 89:1 90:1 91:1 92:1 93:1 94:1 
0.10508597800154039 12:1 13:1 14:1 15:1 16:1 17:1 18:1 19:1 20:1 52:1 53:1 54:1 55:1 63:1 86:1 87:1 88:1 89:1 90:1 91:1 92:1 93:1 94:1 
0.11386534561372084 12:1 13:1 14:1 15:1 16:1 17:1 18:1 19:1 20:1 49:1 50:1 51:1 52:1 53:1 54:1 55:1 56:1 57:1 89:1 90:1 91:1 92:1 97:1 
0.078191939992071982 15:1 16:1 17:1 18:1 23:1 49:1 50:1 51:1 52:1 53:1 54:1 55:1 56:1 57:1 86:1 87:1 89:1 90:1 91:1 92:1 93:1 94:1 
0.051019272665769985 12:1 13:1 15:1 16:1 17:1 18:1 19:1 20:1 49:1 50:1 52:1 53:1 54:1 55:1 56:1 57:1 86:1 89:1 90:1 91:1 92:1 100:1 
0.018165546821163163 12:1 13:1 15:1 16:1 17:1 18:1 19:1 20:1 52:1 53:1 54:1 55:1 63:1 89:1 90:1 91:1 92:1 100:1 103:1 
0.17924302886044716 15:1 16:1 17:1 18:1 28:1 34:1 52:1 53:1 54:1 55:1 70:1 89:1 90:1 91:1 92:1 102:1 108:1 
0.061287614438925699 8:1 12:1 15:1 16:1 17:1 18:1 19:1 52:1 53:1 54:1 55:1 63:1 86:1 87:1 89:1 90:1 91:1 92:1 93:1 94:1 
0.092474644962933547 12:1 13:1 15:1 16:1 17:1 18:1 19:1 20:1 45:1 49:1 52:1 53:1 54:1 55:1 56:1 86:1 89:1 90:1 91:1 92:1 100:1 
0.016779683165987769 12:1 13:1 14:1 15:1 16:1 17:1 18:1 19:1 20:1 49:1 50:1 51:1 52:1 53:1 54:1 55:1 56:1 57:1 86:1 87:1 88:1 89:1 90:1 91:1 92:1 93:1 94:1 
0.30078241671391076 12:1 13:1 14:1 15:1 16:1 17:1 18:1 19:1 20:1 49:1 50:1 51:1 52:1 53:1 54:1 55:1 56:1 57:1 78:1 86:1 87:1 88:1 89:1 90:1 92:1 93:1 94:1 
0.25654442349416384 4:1 12:1 13:1 14:1 15:1 16:1 18:1 19:1 20:1 49:1 50:1 51:1 52:1 53:1 54:1 55:1 56:1 57:1 77:1 86:1 87:1 88:1 89:1 90:1 92:1 93:1 94:1 
0.029046834104065566 1:1 18:1 22:1 55:1 86:1 92:1 
0.15475616187002478 11:1 18:1 31:1 32:1 48:1 53:1 55:1 85:1 92:1 105:1 106:1 108:1 
0.66210329110559052 11:1 18:1 31:1 32:1 34:1 48:1 55:1 68:1 69:1 85:1 92:1 
0.033382307971779955 11:1 18:1 48:1 55:1 68:1 69:1 71:1 76:1 92:1 93:1 94:1 
4 18:1 39:1 55:1 56:1 57:1 78:1 92:1 
4 4:1 18:1 55:1 75:1 77:1 92:1 
4 1:1 3:1 18:1 41:1 55:1 
0.024513063553583979 2:1 18:1 19:1 20:1 44:1 55:1 59:1 69:1 71:1 92:1 102:1 108:1 
0.020127503727787245 18:1 25:1 28:1 32:1 34:1 55:1 65:1 92:1 97:1 102:1 106:1 
